{"learner":{"attributes":{"scikit_learn":"{\"_estimator_type\": \"classifier\"}"},"feature_names":["TransactionID","TransactionDT","TransactionAmt","ProductCD","card1","card2","card3","card4","card5","card6","addr1","addr2","P_emaildomain","C1","C2","C3","C4","C5","C6","C7","C8","C9","C10","C11","C12","C13","C14","D1","D2","D3","D10","D15","M4","M6","V12","V13","V14","V15","V16","V17","V18","V19","V20","V21","V22","V23","V24","V25","V26","V27","V28","V29","V30","V31","V32","V33","V34","V53","V54","V55","V56","V57","V58","V59","V60","V61","V62","V63","V64","V65","V66","V67","V68","V69","V70","V71","V72","V73","V74","V75","V76","V77","V78","V79","V80","V81","V82","V83","V84","V85","V86","V87","V88","V89","V90","V91","V92","V93","V94","V95","V96","V97","V98","V99","V100","V101","V102","V103","V104","V105","V106","V107","V108","V109","V110","V111","V112","V113","V114","V115","V116","V117","V118","V119","V120","V121","V122","V123","V124","V125","V126","V127","V128","V129","V130","V131","V132","V133","V134","V135","V136","V137","V279","V280","V281","V282","V283","V284","V285","V286","V287","V288","V289","V290","V291","V292","V293","V294","V295","V296","V297","V298","V299","V300","V301","V302","V303","V304","V305","V306","V307","V308","V309","V310","V311","V312","V313","V314","V315","V316","V317","V318","V319","V320","V321","hour","dayofweek","day","card1_freq","card1_avg_amt","card1_std_amt","amt_diff_from_avg"],"feature_types":["int","int","float","int","int","float","float","int","float","int","float","float","int","float","float","float","float","float","float","float","float","float","float","float","float","float","float","float","float","float","float","float","int","int","float","float","float","float","float","float","float","float","float","float","float","float","float","float","float","float","float","float","float","float","float","float","float","float","float","float","float","float","float","float","float","float","float","float","float","float","float","float","float","float","float","float","float","float","float","float","float","float","float","float","float","float","float","float","float","float","float","float","float","float","float","float","float","float","float","float","float","float","float","float","float","float","float","float","float","float","float","float","float","float","float","float","float","float","float","float","float","float","float","float","float","float","float","float","float","float","float","float","float","float","float","float","float","float","float","float","float","float","float","float","float","float","float","float","float","float","float","float","float","float","float","float","float","float","float","float","float","float","float","float","float","float","float","float","float","float","float","float","float","float","float","float","float","float","float","float","float","float","float","float","float","int","int","float","int","float","float","float"],"gradient_booster":{"model":{"cats":{"enc":[],"feature_segments":[],"sorted_idx":[]},"gbtree_model_param":{"num_parallel_tree":"1","num_trees":"356"},"iteration_indptr":[0,1,2,3,4,5,6,7,8,9,10,11,12,13,14,15,16,17,18,19,20,21,22,23,24,25,26,27,28,29,30,31,32,33,34,35,36,37,38,39,40,41,42,43,44,45,46,47,48,49,50,51,52,53,54,55,56,57,58,59,60,61,62,63,64,65,66,67,68,69,70,71,72,73,74,75,76,77,78,79,80,81,82,83,84,85,86,87,88,89,90,91,92,93,94,95,96,97,98,99,100,101,102,103,104,105,106,107,108,109,110,111,112,113,114,115,116,117,118,119,120,121,122,123,124,125,126,127,128,129,130,131,132,133,134,135,136,137,138,139,140,141,142,143,144,145,146,147,148,149,150,151,152,153,154,155,156,157,158,159,160,161,162,163,164,165,166,167,168,169,170,171,172,173,174,175,176,177,178,179,180,181,182,183,184,185,186,187,188,189,190,191,192,193,194,195,196,197,198,199,200,201,202,203,204,205,206,207,208,209,210,211,212,213,214,215,216,217,218,219,220,221,222,223,224,225,226,227,228,229,230,231,232,233,234,235,236,237,238,239,240,241,242,243,244,245,246,247,248,249,250,251,252,253,254,255,256,257,258,259,260,261,262,263,264,265,266,267,268,269,270,271,272,273,274,275,276,277,278,279,280,281,282,283,284,285,286,287,288,289,290,291,292,293,294,295,296,297,298,299,300,301,302,303,304,305,306,307,308,309,310,311,312,313,314,315,316,317,318,319,320,321,322,323,324,325,326,327,328,329,330,331,332,333,334,335,336,337,338,339,340,341,342,343,344,345,346,347,348,349,350,351,352,353,354,355,356],"tree_info":[0,0,0,0,0,0,0,0,0,0,0,0,0,0,0,0,0,0,0,0,0,0,0,0,0,0,0,0,0,0,0,0,0,0,0,0,0,0,0,0,0,0,0,0,0,0,0,0,0,0,0,0,0,0,0,0,0,0,0,0,0,0,0,0,0,0,0,0,0,0,0,0,0,0,0,0,0,0,0,0,0,0,0,0,0,0,0,0,0,0,0,0,0,0,0,0,0,0,0,0,0,0,0,0,0,0,0,0,0,0,0,0,0,0,0,0,0,0,0,0,0,0,0,0,0,0,0,0,0,0,0,0,0,0,0,0,0,0,0,0,0,0,0,0,0,0,0,0,0,0,0,0,0,0,0,0,0,0,0,0,0,0,0,0,0,0,0,0,0,0,0,0,0,0,0,0,0,0,0,0,0,0,0,0,0,0,0,0,0,0,0,0,0,0,0,0,0,0,0,0,0,0,0,0,0,0,0,0,0,0,0,0,0,0,0,0,0,0,0,0,0,0,0,0,0,0,0,0,0,0,0,0,0,0,0,0,0,0,0,0,0,0,0,0,0,0,0,0,0,0,0,0,0,0,0,0,0,0,0,0,0,0,0,0,0,0,0,0,0,0,0,0,0,0,0,0,0,0,0,0,0,0,0,0,0,0,0,0,0,0,0,0,0,0,0,0,0,0,0,0,0,0,0,0,0,0,0,0,0,0,0,0,0,0,0,0,0,0,0,0,0,0,0,0,0,0,0,0,0,0,0,0,0,0,0,0,0,0,0,0,0,0,0,0,0,0,0,0,0,0,0,0,0,0,0,0],"trees":[{"base_weights":[9.796418E-3,1.1900718E0,-1.030809E0,1.6248243E0,-6.979983E-1,-1.7377368E0,-1.4124294E-3,5.2932763E-1,1.8020542E0,-1.5588236E0,5.4545456E-1,-1.8141637E0,4.857143E-1,-1.5269805E0,6.7480916E-1,2.8819135E-1,-2.7146897E-1,5.497039E-1,-1.9335176E-1,4.9932244E-1,-5.1584417E-1,3.8388258E-1,-3.365366E-1,-5.420873E-1,3.234248E-1,5.653665E-1,-4.9071345E-1,-4.9071345E-1,6.5882824E-2,-1.098047E-1,4.2847115E-1],"categories":[],"categories_nodes":[],"categories_segments":[],"categories_sizes":[],"default_left":[0,0,0,0,0,0,0,0,0,0,0,0,0,0,0,0,0,0,0,0,0,0,0,0,0,0,0,0,0,0,0],"id":0,"left_children":[1,3,5,7,9,11,13,15,17,19,21,23,25,27,29,-1,-1,-1,-1,-1,-1,-1,-1,-1,-1,-1,-1,-1,-1,-1,-1],"loss_changes":[4.0131455E3,1.257845E3,1.2636642E3,2.4072046E2,3.083214E2,1.7582568E2,7.314188E2,1.1268713E2,1.3813354E2,1.0278177E2,1.5039354E2,4.3328125E1,1.0965304E2,4.9194702E1,3.961034E2,0E0,0E0,0E0,0E0,0E0,0E0,0E0,0E0,0E0,0E0,0E0,0E0,0E0,0E0,0E0,0E0],"parents":[2147483647,0,0,1,1,2,2,3,3,4,4,5,5,6,6,7,7,8,8,9,9,10,10,11,11,12,12,13,13,14,14],"right_children":[2,4,6,8,10,12,14,16,18,20,22,24,26,28,30,-1,-1,-1,-1,-1,-1,-1,-1,-1,-1,-1,-1,-1,-1,-1,-1],"split_conditions":[2E0,3E0,1.0114431E-2,1.0160162E0,6.09454E-1,1.0709809E0,8.9171685E-2,5E2,1E0,9.6869147E-1,9.899896E-1,3.0213156E0,2E0,1.2037321E2,5.078813E-3,2.8819135E-1,-2.7146897E-1,5.497039E-1,-1.9335176E-1,4.9932244E-1,-5.1584417E-1,3.8388258E-1,-3.365366E-1,-5.420873E-1,3.234248E-1,5.653665E-1,-4.9071345E-1,-4.9071345E-1,6.5882824E-2,-1.098047E-1,4.2847115E-1],"split_indices":[9,32,143,14,170,87,29,5,67,36,143,16,87,174,142,0,0,0,0,0,0,0,0,0,0,0,0,0,0,0,0],"split_type":[0,0,0,0,0,0,0,0,0,0,0,0,0,0,0,0,0,0,0,0,0,0,0,0,0,0,0,0,0,0,0],"sum_hessian":[3.2655E3,1.53E3,1.7355E3,1.24375E3,2.8625E2,1.0285E3,7.07E2,1.7375E2,1.07E3,1.69E2,1.1725E2,9.945E2,3.4E1,2.1675E2,4.9025E2,1.3325E2,4.05E1,1.048E3,2.2E1,8.5E0,1.605E2,8.125E1,3.6E1,9.9E2,4.5E0,2.05E1,1.35E1,2.02E2,1.475E1,2.0825E2,2.82E2],"tree_param":{"num_deleted":"0","num_feature":"192","num_nodes":"31","size_leaf_vector":"1"}},{"base_weights":[-4.4024218E-4,-7.31191E-1,1.0269578E0,-1.192064E0,4.7789598E-1,-3.338099E-1,1.33734E0,-1.3512998E0,7.405932E-2,8.969506E-1,-1.6657528E0,5.2063537E-1,-9.017715E-1,1.4162773E0,-1.6925632E0,-4.127711E-1,-1.6688315E-2,5.0933444E-1,-3.8228306E-1,3.20956E-1,-4.6220925E-1,-4.9775645E-1,-1.2234109E-1,-3.6911982E-1,4.8124617E-1,-3.4181565E-2,4.431762E-1,-5.25651E-1,8.922468E-3],"categories":[],"categories_nodes":[],"categories_segments":[],"categories_sizes":[],"default_left":[0,0,0,0,0,0,0,0,0,0,0,0,0,0,0,0,0,0,0,0,0,0,0,0,0,0,0,0,0],"id":1,"left_children":[1,3,5,7,9,11,13,15,17,19,21,-1,23,25,27,-1,-1,-1,-1,-1,-1,-1,-1,-1,-1,-1,-1,-1,-1],"loss_changes":[2.317273E3,1.0056274E3,5.422772E2,2.634392E2,4.4928375E2,2.853538E2,2.5228528E2,6.148877E1,3.3141736E2,1.9208365E2,6.587677E-1,0E0,1.6552666E2,1.2274536E2,3.7932358E0,0E0,0E0,0E0,0E0,0E0,0E0,0E0,0E0,0E0,0E0,0E0,0E0,0E0,0E0],"parents":[2147483647,0,0,1,1,2,2,3,3,4,4,5,5,6,6,7,7,8,8,9,9,10,10,12,12,13,13,14,14],"right_children":[2,4,6,8,10,12,14,16,18,20,22,-1,24,26,28,-1,-1,-1,-1,-1,-1,-1,-1,-1,-1,-1,-1,-1,-1],"split_conditions":[1.5968485E-2,3.816492E-1,1.0160162E0,3.3273913E-3,1E0,2E0,2E0,1.0709809E0,9.9290603E-1,5E0,2.106979E0,5.2063537E-1,1.0048845E0,2.2665186E-2,4.027258E0,-4.127711E-1,-1.6688315E-2,5.0933444E-1,-3.8228306E-1,3.20956E-1,-4.6220925E-1,-4.9775645E-1,-1.2234109E-1,-3.6911982E-1,4.8124617E-1,-3.4181565E-2,4.431762E-1,-5.25651E-1,8.922468E-3],"split_indices":[16,180,14,104,107,33,59,87,101,148,35,0,45,145,13,0,0,0,0,0,0,0,0,0,0,0,0,0,0],"split_type":[0,0,0,0,0,0,0,0,0,0,0,0,0,0,0,0,0,0,0,0,0,0,0,0,0,0,0,0,0],"sum_hessian":[3.0845203E3,1.8026497E3,1.2818707E3,1.3051674E3,4.974824E2,2.3806749E2,1.0438032E3,1.1592992E3,1.4586806E2,4.1662027E2,8.0862114E1,5.0425728E1,1.8764177E2,1.0178188E3,2.5984413E1,1.1236714E3,3.562784E1,6.601548E1,7.9852585E1,3.878634E2,2.8756857E1,7.968444E1,1.1776702E0,1.6563162E2,2.2010143E1,4.9633102E1,9.6818567E2,2.4797083E1,1.1873307E0],"tree_param":{"num_deleted":"0","num_feature":"192","num_nodes":"29","size_leaf_vector":"1"}},{"base_weights":[4.1052657E-3,-5.839384E-1,8.4190315E-1,-1.1116583E0,1.047506E-1,4.193788E-1,3.5334152E-1,-1.1364404E0,1.7380255E0,6.585455E-1,-8.421545E-1,-1.5862194E-1,1.2008178E0,-2.7692413E-1,-3.909161E-1,6.665872E-1,-1.744594E-1,1.31801255E-2,4.432716E-1,-3.313892E-1,2.5432935E-1,3.3696705E-1,-3.661881E-1,3.8473445E-1,-4.185048E-1],"categories":[],"categories_nodes":[],"categories_segments":[],"categories_sizes":[],"default_left":[0,0,0,0,0,0,0,0,0,0,0,0,0,0,0,0,0,0,0,0,0,0,0,0,0],"id":2,"left_children":[1,3,5,7,9,-1,11,13,15,17,19,21,23,-1,-1,-1,-1,-1,-1,-1,-1,-1,-1,-1,-1],"loss_changes":[1.3540167E3,5.8702576E2,3.1662305E2,6.654993E1,3.684207E2,0E0,2.6614948E2,3.220105E1,1.115283E1,2.276264E2,1.2246094E2,5.354559E2,6.029245E1,0E0,0E0,0E0,0E0,0E0,0E0,0E0,0E0,0E0,0E0,0E0,0E0],"parents":[2147483647,0,0,1,1,2,2,3,3,4,4,6,6,7,7,8,8,9,9,10,10,11,11,12,12],"right_children":[2,4,6,8,10,-1,12,14,16,18,20,22,24,-1,-1,-1,-1,-1,-1,-1,-1,-1,-1,-1,-1],"split_conditions":[1.5968485E-2,2.9169893E-1,2E0,1.5216923E-2,1E0,4.193788E-1,3.1094036E0,3E0,1E0,1.7184876E-1,1.0252311E0,1E0,1E0,-2.7692413E-1,-3.909161E-1,6.665872E-1,-1.744594E-1,1.31801255E-2,4.432716E-1,-3.313892E-1,2.5432935E-1,3.3696705E-1,-3.661881E-1,3.8473445E-1,-4.185048E-1],"split_indices":[16,171,33,24,142,0,13,32,33,169,147,26,88,0,0,0,0,0,0,0,0,0,0,0,0],"split_type":[0,0,0,0,0,0,0,0,0,0,0,0,0,0,0,0,0,0,0,0,0,0,0,0,0],"sum_hessian":[2.746372E3,1.613895E3,1.132477E3,9.133842E2,7.0051074E2,5.204943E2,6.119827E2,9.061056E2,7.278685E0,4.4219736E2,2.583134E2,3.8201743E2,2.2996527E2,4.320819E2,4.7402365E2,5.996724E0,1.281961E0,2.5561957E2,1.8657779E2,2.2257089E2,3.5742493E1,1.733718E2,2.0864565E2,2.222267E2,7.7385597E0],"tree_param":{"num_deleted":"0","num_feature":"192","num_nodes":"25","size_leaf_vector":"1"}},{"base_weights":[1.3108509E-2,6.976601E-1,-5.650949E-1,9.6930885E-1,-3.9386517E-1,-9.009333E-1,3.050192E-1,3.860203E-1,1.0931356E0,-9.193199E-1,3.099678E-1,-1.0206568E0,8.499906E-1,1.598653E0,-2.864468E-2,-4.15037E-2,3.4908473E-1,3.327012E-1,-4.683988E-1,3.0046427E-1,-3.0108857E-1,2.2034882E-1,-4.0465084E-1,-3.1761822E-1,2.6189536E-1,3.4932885E-1,-4.0224E-1,5.656063E-1,4.0545952E-1,-4.192129E-1,1.0825737E-1],"categories":[],"categories_nodes":[],"categories_segments":[],"categories_sizes":[],"default_left":[0,0,0,0,0,0,0,0,0,0,0,0,0,0,0,0,0,0,0,0,0,0,0,0,0,0,0,0,0,0,0],"id":3,"left_children":[1,3,5,7,9,11,13,15,17,19,21,23,25,27,29,-1,-1,-1,-1,-1,-1,-1,-1,-1,-1,-1,-1,-1,-1,-1,-1],"loss_changes":[9.470656E2,3.2523926E2,3.7932013E2,6.2961365E1,8.129239E1,1.9711078E2,1.5628949E2,6.478401E1,5.7966614E1,2.440628E1,6.949838E1,8.552197E1,4.5399784E1,2.6931763E0,1.5803766E2,0E0,0E0,0E0,0E0,0E0,0E0,0E0,0E0,0E0,0E0,0E0,0E0,0E0,0E0,0E0,0E0],"parents":[2147483647,0,0,1,1,2,2,3,3,4,4,5,5,6,6,7,7,8,8,9,9,10,10,11,11,12,12,13,13,14,14],"right_children":[2,4,6,8,10,12,14,16,18,20,22,24,26,28,30,-1,-1,-1,-1,-1,-1,-1,-1,-1,-1,-1,-1,-1,-1,-1,-1],"split_conditions":[2E0,3E0,1.0493641E-2,1.0160162E0,6.09454E-1,1.0709809E0,1E0,1.940935E-1,2E0,9.6869147E-1,1.9870874E0,1.0608908E0,3E0,5.078813E-3,1.0248291E0,-4.15037E-2,3.4908473E-1,3.327012E-1,-4.683988E-1,3.0046427E-1,-3.0108857E-1,2.2034882E-1,-4.0465084E-1,-3.1761822E-1,2.6189536E-1,3.4932885E-1,-4.0224E-1,5.656063E-1,4.0545952E-1,-4.192129E-1,1.0825737E-1],"split_indices":[9,32,157,14,170,87,157,177,81,36,146,166,32,142,157,0,0,0,0,0,0,0,0,0,0,0,0,0,0,0,0],"split_type":[0,0,0,0,0,0,0,0,0,0,0,0,0,0,0,0,0,0,0,0,0,0,0,0,0,0,0,0,0,0,0],"sum_hessian":[2.3907314E3,1.0945984E3,1.296133E3,8.765601E2,2.1803824E2,9.351552E2,3.6097787E2,1.5422014E2,7.2233997E2,1.2466326E2,9.337498E1,8.7569464E2,5.9460594E1,7.323816E1,2.8773972E2,9.313995E1,6.1080185E1,7.1514465E2,7.195307E0,5.461494E0,1.1920177E2,7.462619E1,1.8748789E1,8.534221E2,2.227249E1,5.216601E1,7.294581E0,2.8221096E1,4.501706E1,6.3114594E1,2.246251E2],"tree_param":{"num_deleted":"0","num_feature":"192","num_nodes":"31","size_leaf_vector":"1"}},{"base_weights":[-2.3361601E-4,-4.3701643E-1,6.7121047E-1,-7.5678796E-1,2.755441E-1,2.8139868E-1,3.6218134E-1,-8.374881E-1,4.8259795E-1,6.873938E-1,-1.2044967E0,9.816486E-1,-1.3859104E-1,-2.852653E-1,-1.0349281E-1,-2.7361488E-1,3.0465835E-1,2.5263843E-1,-3.5271233E-1,-3.815658E-1,-1.0325216E-1,3.2049406E-1,-3.9682862E-1,-2.5501356E-1,3.1922516E-1],"categories":[],"categories_nodes":[],"categories_segments":[],"categories_sizes":[],"default_left":[0,0,0,0,0,0,0,0,0,0,0,0,0,0,0,0,0,0,0,0,0,0,0,0,0],"id":4,"left_children":[1,3,5,7,9,11,-1,13,15,17,19,21,23,-1,-1,-1,-1,-1,-1,-1,-1,-1,-1,-1,-1],"loss_changes":[6.087373E2,2.8675635E2,1.7518323E2,8.725076E1,2.3872276E2,1.4136395E2,0E0,4.93407E1,4.209559E1,9.5632034E1,5.58049E0,4.2985214E1,2.6492978E2,0E0,0E0,0E0,0E0,0E0,0E0,0E0,0E0,0E0,0E0,0E0,0E0],"parents":[2147483647,0,0,1,1,2,2,3,3,4,4,5,5,7,7,8,8,9,9,10,10,11,11,12,12],"right_children":[2,4,6,8,10,12,-1,14,16,18,20,22,24,-1,-1,-1,-1,-1,-1,-1,-1,-1,-1,-1,-1],"split_conditions":[1.5968485E-2,3.816492E-1,1.6980002E-2,1.0709809E0,1E0,1E0,3.6218134E-1,1.940935E-1,3.7E1,5E0,1.0271559E0,6.1E1,8.037723E0,-2.852653E-1,-1.0349281E-1,-2.7361488E-1,3.0465835E-1,2.5263843E-1,-3.5271233E-1,-3.815658E-1,-1.0325216E-1,3.2049406E-1,-3.9682862E-1,-2.5501356E-1,3.1922516E-1],"split_indices":[16,180,21,87,156,26,0,177,188,148,104,188,13,0,0,0,0,0,0,0,0,0,0,0,0],"split_type":[0,0,0,0,0,0,0,0,0,0,0,0,0,0,0,0,0,0,0,0,0,0,0,0,0],"sum_hessian":[2.0736519E3,1.25658E3,8.1707184E2,8.6730334E2,3.8927658E2,4.7920728E2,3.3786456E2,8.1458734E2,5.2715996E1,3.0495312E2,8.432348E1,1.7915851E2,3.0004877E2,6.481257E2,1.6646164E2,1.4536178E1,3.8179817E1,2.8084882E2,2.410429E1,7.645205E1,7.871427E0,1.7231221E2,6.846299E0,1.8845291E2,1.1159586E2],"tree_param":{"num_deleted":"0","num_feature":"192","num_nodes":"25","size_leaf_vector":"1"}},{"base_weights":[4.9344334E-3,5.5706936E-1,-4.40049E-1,-1.253856E-1,8.208816E-1,-1.2967989E-1,-1.1007667E0,7.0969045E-1,-5.0478923E-1,2.580298E-2,9.4828576E-1,-7.5003916E-1,2.5073263E-1,-1.147929E0,3.0190003E-1,3.855123E-1,-2.7477682E-1,-2.8199357E-1,1.607136E-1,-1.12948194E-1,3.1840274E-1,3.064919E-1,-1.3934588E-1,-2.9105774E-1,-3.0658802E-3,5.3032243E-1,-2.1940047E-2,-3.5704505E-1,-5.3020664E-2],"categories":[],"categories_nodes":[],"categories_segments":[],"categories_sizes":[],"default_left":[0,0,0,0,0,0,0,0,0,0,0,0,0,0,0,0,0,0,0,0,0,0,0,0,0,0,0,0,0],"id":5,"left_children":[1,3,5,7,9,11,13,15,17,19,21,23,25,27,-1,-1,-1,-1,-1,-1,-1,-1,-1,-1,-1,-1,-1,-1,-1],"loss_changes":[4.432169E2,1.4504391E2,2.047011E2,7.174315E1,5.8802307E1,1.6084819E2,3.3062805E1,6.964174E1,7.3183426E1,3.5044827E1,6.1185883E1,4.4383774E1,2.1128064E2,1.6867462E1,0E0,0E0,0E0,0E0,0E0,0E0,0E0,0E0,0E0,0E0,0E0,0E0,0E0,0E0,0E0],"parents":[2147483647,0,0,1,1,2,2,3,3,4,4,5,5,6,6,7,7,8,8,9,9,10,10,11,11,12,12,13,13],"right_children":[2,4,6,8,10,12,14,16,18,20,22,24,26,28,-1,-1,-1,-1,-1,-1,-1,-1,-1,-1,-1,-1,-1,-1,-1],"split_conditions":[2E0,1.0160162E0,3E0,1.15E2,2.2665186E-2,1.0160162E0,1.0010871E0,9.9984926E-1,1.5033139E2,1.0055416E0,9.9984926E-1,1.0063646E0,2E0,6.3E1,3.0190003E-1,3.855123E-1,-2.7477682E-1,-2.8199357E-1,1.607136E-1,-1.12948194E-1,3.1840274E-1,3.064919E-1,-1.3934588E-1,-2.9105774E-1,-3.0658802E-3,5.3032243E-1,-2.1940047E-2,-3.5704505E-1,-5.3020664E-2],"split_indices":[9,14,32,28,145,14,124,151,6,159,151,26,14,29,0,0,0,0,0,0,0,0,0,0,0,0,0,0,0],"split_type":[0,0,0,0,0,0,0,0,0,0,0,0,0,0,0,0,0,0,0,0,0,0,0,0,0,0,0,0,0],"sum_hessian":[1.8019637E3,8.040489E2,9.9791486E2,2.2430914E2,5.7973975E2,6.7978516E2,3.1812967E2,6.980226E1,1.545069E2,8.0233955E1,4.995058E2,2.5803003E2,4.2175516E2,3.1165182E2,6.477859E0,5.144167E1,1.8360588E1,1.08384636E2,4.6122253E1,5.8260532E1,2.1973421E1,4.7135873E2,2.814705E1,1.9623573E2,6.179429E1,7.273826E1,3.490169E2,2.942876E2,1.7364214E1],"tree_param":{"num_deleted":"0","num_feature":"192","num_nodes":"29","size_leaf_vector":"1"}},{"base_weights":[6.4558764E-3,2.5443915E-1,-7.259743E-1,-5.10735E-1,4.8254272E-1,-2.3068264E-1,-1.0190604E0,-6.831041E-1,8.245249E-1,2.743126E-2,9.194937E-1,-5.4244053E-1,4.666365E-1,-1.0648947E0,2.811978E-1,-2.9380268E-1,4.0032484E-2,3.4844863E-1,-3.2066923E-1,1.11025296E-1,-2.5779974E-1,3.1127825E-1,-7.883516E-3,-1.908168E-1,6.1849576E-1,3.8388538E-1,-1.6826352E-1,-3.366919E-1,3.0310003E-3],"categories":[],"categories_nodes":[],"categories_segments":[],"categories_sizes":[],"default_left":[0,0,0,0,0,0,0,0,0,0,0,0,0,0,0,0,0,0,0,0,0,0,0,0,0,0,0,0,0],"id":6,"left_children":[1,3,5,7,9,11,13,15,17,19,21,23,25,27,-1,-1,-1,-1,-1,-1,-1,-1,-1,-1,-1,-1,-1,-1,-1],"loss_changes":[2.85405E2,2.0513382E2,5.7460785E1,6.272043E1,1.7990733E2,3.265582E1,2.3501678E1,6.052157E1,2.2220043E1,1.3861598E2,5.6993347E1,2.886095E1,4.0637688E1,1.859021E1,0E0,0E0,0E0,0E0,0E0,0E0,0E0,0E0,0E0,0E0,0E0,0E0,0E0,0E0,0E0],"parents":[2147483647,0,0,1,1,2,2,3,3,4,4,5,5,6,6,7,7,8,8,9,9,10,10,11,11,12,12,13,13],"right_children":[2,4,6,8,10,12,14,16,18,20,22,24,26,28,-1,-1,-1,-1,-1,-1,-1,-1,-1,-1,-1,-1,-1,-1,-1],"split_conditions":[3E0,2.2665186E-2,2E0,7.940558E-2,1.0043682E0,5.078813E-3,1.0010871E0,3.3011937E-1,1E0,1.7E1,9.9984926E-1,9.6E1,9.914317E-1,6.3E1,2.811978E-1,-2.9380268E-1,4.0032484E-2,3.4844863E-1,-3.2066923E-1,1.11025296E-1,-2.5779974E-1,3.1127825E-1,-7.883516E-3,-1.908168E-1,6.1849576E-1,3.8388538E-1,-1.6826352E-1,-3.366919E-1,3.0310003E-3],"split_indices":[32,145,9,174,23,142,124,181,80,185,151,188,142,29,0,0,0,0,0,0,0,0,0,0,0,0,0,0,0],"split_type":[0,0,0,0,0,0,0,0,0,0,0,0,0,0,0,0,0,0,0,0,0,0,0,0,0,0,0,0,0],"sum_hessian":[1.5693331E3,1.1728776E3,3.964556E2,2.6906363E2,9.038139E2,1.4805005E2,2.4840553E2,2.3873383E2,3.0329817E1,4.4322766E2,4.6058624E2,1.0246296E2,4.5587097E1,2.431989E2,5.2066236E0,1.7330302E2,6.543079E1,2.5939535E1,4.3902826E0,3.1999857E2,1.2322909E2,4.046796E2,5.5906628E1,9.939222E1,3.0707374E0,2.5174576E1,2.041252E1,2.2812727E2,1.5071636E1],"tree_param":{"num_deleted":"0","num_feature":"192","num_nodes":"29","size_leaf_vector":"1"}},{"base_weights":[-2.6550193E-4,4.2120412E-1,-3.3096844E-1,6.4601906E-2,7.6989233E-1,-7.0728517E-1,3.246807E-2,-2.5563735E-1,6.960182E-1,-1.3456824E-1,8.946338E-1,4.2384294E-1,-8.1410164E-1,1.3768303E0,-2.0995742E-1,1.987698E-1,-1.9996011E-1,-3.3758324E-1,2.602488E-1,1.0777733E-1,-4.306717E-1,2.8212E-1,-3.0895746E-1,-3.2524726E-1,3.5525462E-1,-1.16041034E-1,-3.0103257E-1,3.658558E-1,5.425315E-1,-3.119524E-1,5.7393E-2],"categories":[],"categories_nodes":[],"categories_segments":[],"categories_sizes":[],"default_left":[0,0,0,0,0,0,0,0,0,0,0,0,0,0,0,0,0,0,0,0,0,0,0,0,0,0,0,0,0,0,0],"id":7,"left_children":[1,3,5,7,9,11,13,15,17,19,21,23,25,27,29,-1,-1,-1,-1,-1,-1,-1,-1,-1,-1,-1,-1,-1,-1,-1,-1],"loss_changes":[1.951419E2,7.649021E1,1.0731731E2,6.1934273E1,3.522435E1,4.691823E1,1.3066434E2,7.933409E1,3.5368954E1,2.5857342E1,3.1167038E1,4.1263733E1,2.959726E1,1.7050171E0,1.1569325E2,0E0,0E0,0E0,0E0,0E0,0E0,0E0,0E0,0E0,0E0,0E0,0E0,0E0,0E0,0E0,0E0],"parents":[2147483647,0,0,1,1,2,2,3,3,4,4,5,5,6,6,7,7,8,8,9,9,10,10,11,11,12,12,13,13,14,14],"right_children":[2,4,6,8,10,12,14,16,18,20,22,24,26,28,30,-1,-1,-1,-1,-1,-1,-1,-1,-1,-1,-1,-1,-1,-1,-1,-1],"split_conditions":[2E0,1.027865E0,2.9169893E-1,1.940935E-1,5.0941624E1,1.1E1,1E0,1E0,1.015662E0,9.960859E-1,3.788886E2,1.13E2,7.815E3,1.2422E4,1.0123281E0,1.987698E-1,-1.9996011E-1,-3.3758324E-1,2.602488E-1,1.0777733E-1,-4.306717E-1,2.8212E-1,-3.0895746E-1,-3.2524726E-1,3.5525462E-1,-1.16041034E-1,-3.0103257E-1,3.658558E-1,5.425315E-1,-3.119524E-1,5.7393E-2],"split_indices":[9,18,171,177,2,29,143,26,28,42,31,28,4,4,143,0,0,0,0,0,0,0,0,0,0,0,0,0,0,0,0],"split_type":[0,0,0,0,0,0,0,0,0,0,0,0,0,0,0,0,0,0,0,0,0,0,0,0,0,0,0,0,0,0,0],"sum_hessian":[1.3980583E3,6.145551E2,7.835032E2,3.044156E2,3.1013953E2,3.8446582E2,3.9903738E2,2.0237233E2,1.02043274E2,3.7580032E1,2.7255948E2,3.291768E1,3.5154813E2,6.0249035E1,3.3878836E2,6.2834755E1,1.3953758E2,8.725336E0,9.331794E1,2.7799046E1,9.780987E0,2.6526733E2,7.292151E0,1.0965644E1,2.1952034E1,1.1435049E2,2.3719765E2,4.8642704E1,1.1606329E1,1.0922082E2,2.2956754E2],"tree_param":{"num_deleted":"0","num_feature":"192","num_nodes":"31","size_leaf_vector":"1"}},{"base_weights":[-2.9589934E-3,1.7089611E-1,-7.1676064E-1,5.07979E-2,1.3913518E0,3.2672033E-1,-7.7684397E-1,-4.2105064E-1,3.3051664E-1,3.5482857E-1,1.9772311E0,-1.1386029E0,-5.0266314E-1,-1.9812576E-1,3.0492706E-2,-1.2630449E-1,1.6725917E-1,3.5689747E-1,8.619572E-1,-3.4744525E-1,-1.2865177E-2,5.494687E-1,-2.2974063E-1],"categories":[],"categories_nodes":[],"categories_segments":[],"categories_sizes":[],"default_left":[0,0,0,0,0,0,0,0,0,0,0,0,0,0,0,0,0,0,0,0,0,0,0],"id":8,"left_children":[1,3,5,7,9,-1,11,13,15,-1,17,19,21,-1,-1,-1,-1,-1,-1,-1,-1,-1,-1],"loss_changes":[1.5460178E2,1.4677003E2,2.7520142E1,1.2065491E2,7.8576813E0,0E0,2.2913635E1,4.4142406E1,1.0167151E2,0E0,1.1483452E1,3.6464996E0,8.8982346E1,0E0,0E0,0E0,0E0,0E0,0E0,0E0,0E0,0E0,0E0],"parents":[2147483647,0,0,1,1,2,2,3,3,4,4,6,6,7,7,8,8,10,10,11,11,12,12],"right_children":[2,4,6,8,10,-1,12,14,16,-1,18,20,22,-1,-1,-1,-1,-1,-1,-1,-1,-1,-1],"split_conditions":[1E0,1.8868804E-2,4E0,1.0160162E0,2E0,3.2672033E-1,1.5759284E-2,2.2100027E-1,2.2665186E-2,3.5482857E-1,2.989571E6,1.001812E0,9.9781585E-1,-1.9812576E-1,3.0492706E-2,-1.2630449E-1,1.6725917E-1,3.5689747E-1,8.619572E-1,-3.4744525E-1,-1.2865177E-2,5.494687E-1,-2.2974063E-1],"split_indices":[17,17,3,14,9,0,94,175,145,0,0,119,94,0,0,0,0,0,0,0,0,0,0],"split_type":[0,0,0,0,0,0,0,0,0,0,0,0,0,0,0,0,0,0,0,0,0,0,0],"sum_hessian":[1.2438163E3,1.0008159E3,2.4300034E2,9.121026E2,8.871329E1,7.2162127E0,2.3578412E2,3.3927884E2,5.728238E2,6.8885414E1,1.982787E1,1.0029734E2,1.3548679E2,2.3031783E2,1.08961006E2,1.3497064E2,4.3785315E2,1.207864E1,7.7492285E0,9.726745E1,3.0298922E0,1.3432881E1,1.220539E2],"tree_param":{"num_deleted":"0","num_feature":"192","num_nodes":"23","size_leaf_vector":"1"}},{"base_weights":[-2.3372972E-3,2.0103934E-1,-5.202432E-1,-1.6033243E-1,1.2937652E0,-9.86047E-1,-6.0176715E-2,-6.1501664E-1,2.2948548E-1,1.2450376E0,2.6657462E0,-1.0664815E0,3.248477E-1,-8.723461E-1,1.8774565E-1,-2.1928711E-1,2.3909771E-1,-3.5820937E-1,1.2380193E-1,4.0086254E-1,3.2193485E-1,4.5692578E-1,1.0979551E0,-3.485134E-1,-9.716758E-2,-2.7150878E-1,2.4663275E-1,-3.5305262E-1,1.6124254E-1,-3.3353788E-1,1.10602714E-1],"categories":[],"categories_nodes":[],"categories_segments":[],"categories_sizes":[],"default_left":[0,0,0,0,0,0,0,0,0,0,0,0,0,0,0,0,0,0,0,0,0,0,0,0,0,0,0,0,0,0,0],"id":9,"left_children":[1,3,5,7,9,11,13,15,17,19,21,23,25,27,29,-1,-1,-1,-1,-1,-1,-1,-1,-1,-1,-1,-1,-1,-1,-1,-1],"loss_changes":[1.1764566E2,3.1690103E2,6.7430984E1,1.07121445E2,1.0013153E1,1.6840118E1,3.228133E1,5.0005722E1,8.858336E1,1.845459E0,1.2509308E0,1.1506668E1,6.9327116E0,1.7553818E1,3.0349182E1,0E0,0E0,0E0,0E0,0E0,0E0,0E0,0E0,0E0,0E0,0E0,0E0,0E0,0E0,0E0,0E0],"parents":[2147483647,0,0,1,1,2,2,3,3,4,4,5,5,6,6,7,7,8,8,9,9,10,10,11,11,12,12,13,13,14,14],"right_children":[2,4,6,8,10,12,14,16,18,20,22,24,26,28,30,-1,-1,-1,-1,-1,-1,-1,-1,-1,-1,-1,-1,-1,-1,-1,-1],"split_conditions":[1E0,1.2577812E-2,1.1425022E2,1.5968485E-2,9.783255E-1,1.041644E0,-7.87427E1,7.940558E-2,3.447156E1,1.5968485E-2,1.4586817E1,1.8205865E-1,2.2407076E2,1.0304579E0,1.74E2,-2.1928711E-1,2.3909771E-1,-3.5820937E-1,1.2380193E-1,4.0086254E-1,3.2193485E-1,4.5692578E-1,1.0979551E0,-3.485134E-1,-9.716758E-2,-2.7150878E-1,2.4663275E-1,-3.5305262E-1,1.6124254E-1,-3.3353788E-1,1.10602714E-1],"split_indices":[57,57,190,16,51,71,191,174,189,16,29,138,8,60,5,0,0,0,0,0,0,0,0,0,0,0,0,0,0,0,0],"split_type":[0,0,0,0,0,0,0,0,0,0,0,0,0,0,0,0,0,0,0,0,0,0,0,0,0,0,0,0,0,0,0],"sum_hessian":[1.1149319E3,8.009991E2,3.1393277E2,6.025763E2,1.9842278E2,1.5542561E2,1.5850714E2,2.7787952E2,3.2469678E2,1.9345929E2,4.9634767E0,1.4661595E2,8.809672E0,3.6480843E1,1.2202629E2,2.5592E2,2.1959524E1,3.6937965E1,2.8775882E2,1.1117338E2,8.228591E1,3.5747113E0,1.3887655E0,1.2724143E2,1.9374514E1,2.3219972E0,6.487675E0,2.9912792E1,6.5680504E0,1.4467674E1,1.0755862E2],"tree_param":{"num_deleted":"0","num_feature":"192","num_nodes":"31","size_leaf_vector":"1"}},{"base_weights":[8.098484E-3,3.369709E-1,-3.0242267E-1,-1.7693092E-1,1.24573E0,-7.382084E-1,-2.6082907E-2,-3.200656E-1,8.691146E-1,1.317242E0,3.202018E-1,-9.533202E-1,9.1621953E-1,5.210257E-2,-1.3781644E0,9.963197E-4,-2.1081136E-1,-7.450349E-2,2.869224E-1,4.20466E-1,3.369125E-1,-2.9766685E-1,1.8841234E-1,-4.5266647E-2,3.038883E-1,-4.0427674E-2,1.975837E-1,-4.4799417E-1,-1.13302924E-1],"categories":[],"categories_nodes":[],"categories_segments":[],"categories_sizes":[],"default_left":[0,0,0,0,0,0,0,0,0,0,0,0,0,0,0,0,0,0,0,0,0,0,0,0,0,0,0,0,0],"id":10,"left_children":[1,3,5,7,9,11,13,15,17,19,-1,21,23,25,27,-1,-1,-1,-1,-1,-1,-1,-1,-1,-1,-1,-1,-1,-1],"loss_changes":[1.0176022E2,2.2621646E2,6.1703693E1,4.6691547E1,6.499939E-1,7.164344E1,3.3338417E1,3.4577568E1,4.397915E0,5.366516E-1,0E0,1.4855118E1,2.8765697E0,3.4646038E1,1.7046585E0,0E0,0E0,0E0,0E0,0E0,0E0,0E0,0E0,0E0,0E0,0E0,0E0,0E0,0E0],"parents":[2147483647,0,0,1,1,2,2,3,3,4,4,5,5,6,6,7,7,8,8,9,9,11,11,12,12,13,13,14,14],"right_children":[2,4,6,8,10,12,14,16,18,20,-1,22,24,26,28,-1,-1,-1,-1,-1,-1,-1,-1,-1,-1,-1,-1,-1,-1],"split_conditions":[1E0,1.2577812E-2,7.795E1,3.0002754E0,1.4231751E-2,1.0044891E0,7.5499164E2,1.7E1,3.0632746E0,6.734804E-3,3.202018E-1,1.0134383E0,-5.3125E1,1.0053141E0,5.314169E-3,9.963197E-4,-2.1081136E-1,-7.450349E-2,2.869224E-1,4.20466E-1,3.369125E-1,-2.9766685E-1,1.8841234E-1,-4.5266647E-2,3.038883E-1,-4.0427674E-2,1.975837E-1,-4.4799417E-1,-1.13302924E-1],"split_indices":[41,41,2,24,19,127,180,185,20,158,0,64,191,153,144,0,0,0,0,0,0,0,0,0,0,0,0,0,0],"split_type":[0,0,0,0,0,0,0,0,0,0,0,0,0,0,0,0,0,0,0,0,0,0,0,0,0,0,0,0,0],"sum_hessian":[9.9446094E2,4.829181E2,5.1154288E2,3.0899002E2,1.7392805E2,1.9785524E2,3.1368762E2,2.7240918E2,3.6580837E1,1.16637726E2,5.7290337E1,1.7546477E2,2.2390474E1,2.9744882E2,1.6238813E1,1.4962996E2,1.2277923E2,2.8356395E0,3.3745197E1,7.045234E1,4.6185387E1,1.703947E2,5.070073E0,2.0311165E0,2.0359358E1,2.2821623E2,6.923258E1,1.387061E1,2.368203E0],"tree_param":{"num_deleted":"0","num_feature":"192","num_nodes":"29","size_leaf_vector":"1"}},{"base_weights":[7.2376436E-4,1.4732735E-1,-5.1925033E-1,-1.4862521E-2,7.959246E-1,-6.241547E-1,7.225215E-1,-1.16044E-1,1.1353608E0,1.103206E0,-1.9474103E-1,-8.681661E-1,-2.8915277E-1,1.4829134E0,-4.8851183E-1,6.1440572E-2,-1.3441455E-1,4.448086E-1,-6.589121E-2,3.2964966E-1,3.0150821E-2,-1.727115E-1,3.4507674E-1,-2.8273717E-1,1.9084485E-1,-2.2019288E-1,1.3301738E-1,9.638634E-2,4.6835E-1,-2.6967284E-1,1.563838E-1],"categories":[],"categories_nodes":[],"categories_segments":[],"categories_sizes":[],"default_left":[0,0,0,0,0,0,0,0,0,0,0,0,0,0,0,0,0,0,0,0,0,0,0,0,0,0,0,0,0,0,0],"id":11,"left_children":[1,3,5,7,9,11,13,15,17,19,21,23,25,27,29,-1,-1,-1,-1,-1,-1,-1,-1,-1,-1,-1,-1,-1,-1,-1,-1],"loss_changes":[6.8605675E1,7.386364E1,2.623574E1,6.5606255E1,4.2971054E1,1.4712669E1,1.5350032E1,5.6584866E1,2.2918198E1,8.2225037E-1,1.8646797E1,1.4240677E1,2.6650703E1,6.0796547E-1,3.4224844E0,0E0,0E0,0E0,0E0,0E0,0E0,0E0,0E0,0E0,0E0,0E0,0E0,0E0,0E0,0E0,0E0],"parents":[2147483647,0,0,1,1,2,2,3,3,4,4,5,5,6,6,7,7,8,8,9,9,10,10,11,11,12,12,13,13,14,14],"right_children":[2,4,6,8,10,12,14,16,18,20,22,24,26,28,30,-1,-1,-1,-1,-1,-1,-1,-1,-1,-1,-1,-1,-1,-1,-1,-1],"split_conditions":[3E0,7.0429146E-3,2.7727953E-3,1.5759284E-2,1E0,1.00205025E2,4.668346E1,1E0,1E0,4.821149E2,1.0023234E0,1.001812E0,1.8267982E-2,1.5E1,2.2E1,6.1440572E-2,-1.3441455E-1,4.448086E-1,-6.589121E-2,3.2964966E-1,3.0150821E-2,-1.727115E-1,3.4507674E-1,-2.8273717E-1,1.9084485E-1,-2.2019288E-1,1.3301738E-1,9.638634E-2,4.6835E-1,-2.6967284E-1,1.563838E-1],"split_indices":[32,165,149,94,63,2,173,65,94,27,167,119,22,188,185,0,0,0,0,0,0,0,0,0,0,0,0,0,0,0,0],"split_type":[0,0,0,0,0,0,0,0,0,0,0,0,0,0,0,0,0,0,0,0,0,0,0,0,0,0,0,0,0,0,0],"sum_hessian":[8.979783E2,7.010407E2,1.9693756E2,5.615861E2,1.3945456E2,1.8205501E2,1.4882557E1,5.1700586E2,4.458025E1,1.063528E2,3.3101765E1,1.0441144E2,7.764357E1,9.004345E0,5.8782125E0,2.6419873E2,2.5280716E2,3.5051903E1,9.528346E0,1.0532765E2,1.0251508E0,2.6195831E1,6.9059343E0,9.917201E1,5.239423E0,4.8080593E1,2.9562977E1,1.0312237E0,7.973121E0,4.2298193E0,1.6483935E0],"tree_param":{"num_deleted":"0","num_feature":"192","num_nodes":"31","size_leaf_vector":"1"}},{"base_weights":[2.464803E-3,-5.555447E-1,1.2008539E-1,-7.399853E-1,6.718645E-1,-3.1134067E-2,7.300674E-1,-9.1338533E-1,6.992133E-1,1.1659331E0,-9.5516086E-1,-2.7628914E-1,2.837557E-1,-1.0018492E0,8.45354E-1,-2.9155654E-1,9.350094E-2,-2.6636484E-1,2.86349E-1,-4.9908716E-2,3.7870234E-1,-1.5427078E-2,-3.4574252E-1,6.416511E-2,-1.3956292E-1,3.339298E-1,-1.6898945E-2,-4.0280318E-1,1.7745097E-1,2.6578757E-1,-2.1678309E-1],"categories":[],"categories_nodes":[],"categories_segments":[],"categories_sizes":[],"default_left":[0,0,0,0,0,0,0,0,0,0,0,0,0,0,0,0,0,0,0,0,0,0,0,0,0,0,0,0,0,0,0],"id":12,"left_children":[1,3,5,7,9,11,13,15,17,19,21,23,25,27,29,-1,-1,-1,-1,-1,-1,-1,-1,-1,-1,-1,-1,-1,-1,-1,-1],"loss_changes":[5.5043293E1,3.35495E1,6.3911716E1,3.2433174E1,1.6867222E1,4.2999207E1,2.8328667E1,1.0132088E1,6.945039E0,2.5169296E0,9.140558E-1,3.0102196E1,7.008449E1,5.9797297E0,1.1104858E1,0E0,0E0,0E0,0E0,0E0,0E0,0E0,0E0,0E0,0E0,0E0,0E0,0E0,0E0,0E0,0E0],"parents":[2147483647,0,0,1,1,2,2,3,3,4,4,5,5,6,6,7,7,8,8,9,9,10,10,11,11,12,12,13,13,14,14],"right_children":[2,4,6,8,10,12,14,16,18,20,22,24,26,28,30,-1,-1,-1,-1,-1,-1,-1,-1,-1,-1,-1,-1,-1,-1,-1,-1],"split_conditions":[4.0389458E1,7.940558E-2,1.5033139E2,1.0044891E0,1.9918892E0,6.5254103E-3,3.8882877E1,1.041644E0,-5.2151997E1,-8.142905E1,1.7E1,1E0,1E0,5.301833E0,2E0,-2.9155654E-1,9.350094E-2,-2.6636484E-1,2.86349E-1,-4.9908716E-2,3.7870234E-1,-1.5427078E-2,-3.4574252E-1,6.416511E-2,-1.3956292E-1,3.339298E-1,-1.6898945E-2,-4.0280318E-1,1.7745097E-1,2.6578757E-1,-2.1678309E-1],"split_indices":[2,174,6,129,153,150,189,71,191,191,12,70,150,13,59,0,0,0,0,0,0,0,0,0,0,0,0,0,0,0,0],"split_type":[0,0,0,0,0,0,0,0,0,0,0,0,0,0,0,0,0,0,0,0,0,0,0,0,0,0,0,0,0,0,0],"sum_hessian":[8.366311E2,1.4500111E2,6.9162994E2,1.2640376E2,1.8597351E1,5.5499194E2,1.3663802E2,1.1313784E2,1.3265921E1,1.4482836E1,4.114516E0,3.1211768E2,2.4287428E2,8.04783E0,1.285902E2,1.0722623E2,5.9116144E0,1.5584471E0,1.1707474E1,1.0768906E0,1.3405945E1,1.015419E0,3.0990968E0,8.829075E1,2.2382692E2,6.9274284E1,1.736E2,6.704197E0,1.343633E0,1.24967476E2,3.6227183E0],"tree_param":{"num_deleted":"0","num_feature":"192","num_nodes":"31","size_leaf_vector":"1"}},{"base_weights":[2.1023931E-2,1.0049075E-1,-7.426613E-1,-8.494449E-2,5.541138E-1,-8.686075E-1,7.316813E-1,-3.1400195E-1,2.236523E-1,3.2662946E-1,-1.934865E-2,-9.994259E-1,7.4363446E-1,-7.316569E-2,3.0861008E-1,-1.5490596E-1,6.8974555E-2,3.791504E-1,-3.5060134E-2,-1.3144593E-1,3.4503946E-1,-3.275752E-1,2.3931506E-1,3.0750427E-2,2.5532392E-1],"categories":[],"categories_nodes":[],"categories_segments":[],"categories_sizes":[],"default_left":[0,0,0,0,0,0,0,0,0,0,0,0,0,0,0,0,0,0,0,0,0,0,0,0,0],"id":13,"left_children":[1,3,5,7,9,11,13,15,17,-1,19,21,23,-1,-1,-1,-1,-1,-1,-1,-1,-1,-1,-1,-1],"loss_changes":[4.6754097E1,5.8724392E1,1.4119038E1,3.513195E1,6.362644E1,1.4949348E1,2.1504495E0,3.2617256E1,7.6603714E1,0E0,5.064356E1,1.2845779E1,3.341384E-1,0E0,0E0,0E0,0E0,0E0,0E0,0E0,0E0,0E0,0E0,0E0,0E0],"parents":[2147483647,0,0,1,1,2,2,3,3,4,4,5,5,6,6,7,7,8,8,10,10,11,11,12,12],"right_children":[2,4,6,8,10,12,14,16,18,-1,20,22,24,-1,-1,-1,-1,-1,-1,-1,-1,-1,-1,-1,-1],"split_conditions":[2E0,5.078813E-3,2.396295E2,1.027865E0,1E0,2.001162E0,8.3E1,7.0429146E-3,2E0,3.2662946E-1,1.0252311E0,1.0082211E0,4E0,-7.316569E-2,3.0861008E-1,-1.5490596E-1,6.8974555E-2,3.791504E-1,-3.5060134E-2,-1.3144593E-1,3.4503946E-1,-3.275752E-1,2.3931506E-1,3.0750427E-2,2.5532392E-1],"split_indices":[142,142,176,18,142,166,30,165,18,0,142,115,188,0,0,0,0,0,0,0,0,0,0,0,0],"split_type":[0,0,0,0,0,0,0,0,0,0,0,0,0,0,0,0,0,0,0,0,0,0,0,0,0],"sum_hessian":[7.681759E2,6.9656213E2,7.161378E1,4.9501794E2,2.015442E2,6.635613E1,5.2576437E0,2.8411484E2,2.1090312E2,1.0262521E2,9.891898E1,6.1727615E1,4.628518E0,1.3111786E0,3.946465E0,2.0570331E2,7.841152E1,5.0942257E1,1.5996086E2,7.3281815E1,2.5637165E1,5.868938E1,3.0382352E0,1.0105444E0,3.6179738E0],"tree_param":{"num_deleted":"0","num_feature":"192","num_nodes":"25","size_leaf_vector":"1"}},{"base_weights":[1.2630982E-2,1.1177891E-1,-5.4193574E-1,-6.8308294E-2,3.3899903E-1,-6.264323E-1,7.428973E-1,1.8743211E-1,-3.1949812E-1,-8.4002185E-1,1.602221E-2,1.1035763E0,-1.7426452E-1,-4.643938E-2,3.4190983E-1,-2.0419596E-1,1.0546172E-2,-2.8324515E-1,1.7561356E-2,-1.6509496E-1,2.6278895E-1,6.1510503E-2,3.7184966E-1],"categories":[],"categories_nodes":[],"categories_segments":[],"categories_sizes":[],"default_left":[0,0,0,0,0,0,0,0,0,0,0,0,0,0,0,0,0,0,0,0,0,0,0],"id":14,"left_children":[1,3,5,7,-1,9,11,13,15,17,19,21,-1,-1,-1,-1,-1,-1,-1,-1,-1,-1,-1],"loss_changes":[3.838068E1,1.1007582E2,1.1959404E1,3.2501442E1,0E0,1.3719532E1,4.0038023E0,8.35478E1,3.3476334E1,7.8349953E0,1.3409219E1,5.292597E-1,0E0,0E0,0E0,0E0,0E0,0E0,0E0,0E0,0E0,0E0,0E0],"parents":[2147483647,0,0,1,1,2,2,3,3,5,5,6,6,7,7,8,8,9,9,10,10,11,11],"right_children":[2,4,6,8,-1,10,12,14,16,18,20,22,-1,-1,-1,-1,-1,-1,-1,-1,-1,-1,-1],"split_conditions":[1E0,1.04875416E-1,2.1347973E0,1E0,3.3899903E-1,1.0052061E0,1.3679851E0,1.2577812E-2,1.00205025E2,2.2E1,3.2745984E2,2.987672E6,-1.7426452E-1,-4.643938E-2,3.4190983E-1,-2.0419596E-1,1.0546172E-2,-2.8324515E-1,1.7561356E-2,-1.6509496E-1,2.6278895E-1,6.1510503E-2,3.7184966E-1],"split_indices":[151,176,82,41,0,144,59,41,2,185,10,0,0,0,0,0,0,0,0,0,0,0,0],"split_type":[0,0,0,0,0,0,0,0,0,0,0,0,0,0,0,0,0,0,0,0,0,0,0],"sum_hessian":[6.959301E2,5.9105676E2,1.0487334E2,5.0401035E2,8.7046394E1,9.888279E1,5.990549E0,2.4986877E2,2.5414159E2,7.397999E1,2.49028E1,4.847362E0,1.1431872E0,1.8485336E2,6.501541E1,1.2412195E2,1.3001964E2,6.551317E1,8.46682E0,1.5235049E1,9.66775E0,1.0398583E0,3.8075037E0],"tree_param":{"num_deleted":"0","num_feature":"192","num_nodes":"23","size_leaf_vector":"1"}},{"base_weights":[2.5896449E-2,8.136803E-2,-1.0156872E0,1.852317E-1,-4.0679047E-1,-1.0592349E0,1.895512E-2,1.6869303E-2,1.2615302E0,-5.8402294E-1,1.002669E0,-2.2686949E-2,-3.2357883E-1,1.064777E-1,-5.8529317E-2,4.2799947E-1,3.22082E-1,-2.3346667E-1,-1.4326881E-2,1.8543456E-2,3.2070273E-1],"categories":[],"categories_nodes":[],"categories_segments":[],"categories_sizes":[],"default_left":[0,0,0,0,0,0,0,0,0,0,0,0,0,0,0,0,0,0,0,0,0],"id":15,"left_children":[1,3,5,7,9,11,-1,13,15,17,19,-1,-1,-1,-1,-1,-1,-1,-1,-1,-1],"loss_changes":[3.6571476E1,3.0523117E1,1.5725288E0,8.9831985E1,2.6981722E1,8.916359E-1,0E0,3.1594934E1,5.706177E-1,1.0261398E1,8.369608E-1,0E0,0E0,0E0,0E0,0E0,0E0,0E0,0E0,0E0,0E0],"parents":[2147483647,0,0,1,1,2,2,3,3,4,4,5,5,7,7,8,8,9,9,10,10],"right_children":[2,4,6,8,10,12,-1,14,16,18,20,-1,-1,-1,-1,-1,-1,-1,-1,-1,-1],"split_conditions":[4.22E2,1E0,2.7355557E2,1.2007007E-2,1.1191497E0,1.9E3,1.895512E-2,1.7E1,1.0114431E-2,2.3E2,1.306931E0,-2.2686949E-2,-3.2357883E-1,1.064777E-1,-5.8529317E-2,4.2799947E-1,3.22082E-1,-2.3346667E-1,-1.4326881E-2,1.8543456E-2,3.2070273E-1],"split_indices":[30,79,191,79,34,4,0,12,143,171,91,0,0,0,0,0,0,0,0,0,0],"split_type":[0,0,0,0,0,0,0,0,0,0,0,0,0,0,0,0,0,0,0,0,0],"sum_hessian":[6.3053174E2,5.995248E2,3.1006989E1,4.9485654E2,1.04668236E2,2.9822935E1,1.1840518E0,4.2879672E2,6.6059814E1,9.3497086E1,1.1171152E1,1.0531374E0,2.8769798E1,1.6483401E2,2.639627E2,2.8835964E1,3.722385E1,6.74207E1,2.6076382E1,1.0054967E0,1.0165655E1],"tree_param":{"num_deleted":"0","num_feature":"192","num_nodes":"21","size_leaf_vector":"1"}},{"base_weights":[-2.6835334E-3,-7.5973827E-1,5.9055068E-2,-8.9167166E-1,7.06517E-1,1.1205635E-1,-1.0052041E0,6.292862E-1,-1.011907E0,-4.9416758E-2,3.4155577E-1,3.0489597E-1,-1.942618E-1,-6.0043925E-1,-3.1948733E-1,5.7110095E-1,-1.9466518E-1,-3.1991303E-1,-8.416502E-2,5.6184303E-2,3.466869E-1,-2.8201497E-1,3.8758323E-3,1.1623017E-1,-2.5751024E-1],"categories":[],"categories_nodes":[],"categories_segments":[],"categories_sizes":[],"default_left":[0,0,0,0,0,0,0,0,0,0,0,0,0,0,0,0,0,0,0,0,0,0,0,0,0],"id":16,"left_children":[1,3,5,7,9,11,13,15,17,-1,-1,19,21,23,-1,-1,-1,-1,-1,-1,-1,-1,-1,-1,-1],"loss_changes":[2.7770107E1,9.296362E0,3.1101973E1,8.233929E0,1.8479161E0,3.1025318E1,1.1989403E-1,7.369245E0,1.5947342E0,0E0,0E0,3.1906588E1,3.189375E1,1.9982188E0,0E0,0E0,0E0,0E0,0E0,0E0,0E0,0E0,0E0,0E0,0E0],"parents":[2147483647,0,0,1,1,2,2,3,3,4,4,5,5,6,6,7,7,8,8,11,11,12,12,13,13],"right_children":[2,4,6,8,10,12,14,16,18,-1,-1,20,22,24,-1,-1,-1,-1,-1,-1,-1,-1,-1,-1,-1],"split_conditions":[1.5216938E0,3.18E2,9.1E2,1.4625342E2,2.62E2,2.26E2,8.192342E-1,3.1190802E2,7.4854746E0,-4.9416758E-2,3.4155577E-1,2.2407076E2,1.1388855E0,2.98981E6,-3.1948733E-1,5.7110095E-1,-1.9466518E-1,-3.1991303E-1,-8.416502E-2,5.6184303E-2,3.466869E-1,-2.8201497E-1,3.8758323E-3,1.1623017E-1,-2.5751024E-1],"split_indices":[190,131,188,10,27,8,47,5,13,0,0,8,30,0,0,0,0,0,0,0,0,0,0,0,0],"split_type":[0,0,0,0,0,0,0,0,0,0,0,0,0,0,0,0,0,0,0,0,0,0,0,0,0],"sum_hessian":[5.921865E2,4.3799534E1,5.48387E2,4.0543327E1,3.2562103E0,5.2322455E2,2.5162455E1,2.6600702E0,3.7883255E1,1.3115956E0,1.9446146E0,3.210901E2,2.0213448E2,5.2290187E0,1.9933435E1,1.0763503E0,1.5837197E0,3.4242336E1,3.6409185E0,2.8435477E2,3.6735302E1,4.268934E1,1.5944513E2,1.013951E0,4.215068E0],"tree_param":{"num_deleted":"0","num_feature":"192","num_nodes":"25","size_leaf_vector":"1"}},{"base_weights":[1.6925199E-2,5.7827547E-2,-1.0151622E0,1.22276515E-1,-6.260609E-1,-3.1192642E-1,-4.5971088E-2,-1.9857591E-2,5.500516E-1,-7.440389E-1,2.3628123E-1,-1.15527116E-1,5.098175E-2,3.174011E-1,-1.5040484E-3,-2.4880785E-1,2.6419324E-1],"categories":[],"categories_nodes":[],"categories_segments":[],"categories_sizes":[],"default_left":[0,0,0,0,0,0,0,0,0,0,0,0,0,0,0,0,0],"id":17,"left_children":[1,3,5,7,9,-1,-1,11,13,15,-1,-1,-1,-1,-1,-1,-1],"loss_changes":[2.4013916E1,2.4176138E1,5.262852E-1,3.044334E1,8.526173E0,0E0,0E0,2.6786081E1,3.608662E1,7.620119E0,0E0,0E0,0E0,0E0,0E0,0E0,0E0],"parents":[2147483647,0,0,1,1,2,2,3,3,4,4,7,7,8,8,9,9],"right_children":[2,4,6,8,10,-1,-1,12,14,16,-1,-1,-1,-1,-1,-1,-1],"split_conditions":[4.31E2,2E0,1.7188E4,1.6636957E-1,2.001162E0,-3.1192642E-1,-4.5971088E-2,1E1,1E0,1.1191497E0,2.3628123E-1,-1.15527116E-1,5.098175E-2,3.174011E-1,-1.5040484E-3,-2.4880785E-1,2.6419324E-1],"split_indices":[30,142,4,132,166,0,0,188,101,34,0,0,0,0,0,0,0],"split_type":[0,0,0,0,0,0,0,0,0,0,0,0,0,0,0,0,0],"sum_hessian":[5.664601E2,5.457746E2,2.0685461E1,4.995214E2,4.62532E1,1.9619068E1,1.066393E0,3.7565762E2,1.2386378E2,4.3152733E1,3.1004689E0,1.279488E2,2.4770883E2,6.344394E1,6.0419838E1,4.1238846E1,1.9138843E0],"tree_param":{"num_deleted":"0","num_feature":"192","num_nodes":"17","size_leaf_vector":"1"}},{"base_weights":[2.7271166E-2,8.0592036E-2,-7.42327E-1,-3.462096E-2,4.969485E-1,-1.0017481E0,1.1028082E0,1.1839713E-2,-1.2989041E0,7.989522E-1,1.6920116E-2,-4.2335007E-1,-3.062435E-1,-2.1122757E-1,7.9376227E-1,2.4060357E-2,-1.8581161E-1,-1.8125564E-1,-4.800044E-1,-1.0621472E-1,2.760064E-1,7.947963E-2,-3.136677E-1,-5.1423092E-3,-1.7793077E-1],"categories":[],"categories_nodes":[],"categories_segments":[],"categories_sizes":[],"default_left":[0,0,0,0,0,0,0,0,0,0,0,0,0,0,0,0,0,0,0,0,0,0,0,0,0],"id":18,"left_children":[1,3,5,7,9,11,13,15,17,19,21,23,-1,-1,-1,-1,-1,-1,-1,-1,-1,-1,-1,-1,-1],"loss_changes":[2.2250967E1,2.4320549E1,1.792389E1,2.3379868E1,1.5915079E1,1.282425E-1,1.56478195E1,1.7077175E1,2.1155262E0,1.0633556E1,1.2015085E1,2.2636789E-1,0E0,0E0,0E0,0E0,0E0,0E0,0E0,0E0,0E0,0E0,0E0,0E0,0E0],"parents":[2147483647,0,0,1,1,2,2,3,3,4,4,5,5,6,6,7,7,8,8,9,9,10,10,11,11],"right_children":[2,4,6,8,10,12,14,16,18,20,22,24,-1,-1,-1,-1,-1,-1,-1,-1,-1,-1,-1,-1,-1],"split_conditions":[2E0,2.018445E0,6E1,2E0,3E0,9.211439E-1,2.2E1,4.41E2,2.99068E6,4.2034714E1,1.7E2,1.0838408E2,-3.062435E-1,-2.1122757E-1,7.9376227E-1,2.4060357E-2,-1.8581161E-1,-1.8125564E-1,-4.800044E-1,-1.0621472E-1,2.760064E-1,7.947963E-2,-3.136677E-1,-5.1423092E-3,-1.7793077E-1],"split_indices":[17,23,29,24,26,47,185,10,0,189,28,189,0,0,0,0,0,0,0,0,0,0,0,0,0],"split_type":[0,0,0,0,0,0,0,0,0,0,0,0,0,0,0,0,0,0,0,0,0,0,0,0,0],"sum_hessian":[5.397772E2,5.0563974E2,3.413748E1,3.9676492E2,1.08874825E2,3.0330221E1,3.8072608E0,3.836567E2,1.3108223E1,6.642193E1,4.2452896E1,2.2984107E0,2.803181E1,2.0227554E0,1.7845055E0,3.4687732E2,3.677939E1,5.0890093E0,8.019214E0,6.6260195E0,5.979591E1,3.5020626E1,7.4322705E0,1.0304034E0,1.2680074E0],"tree_param":{"num_deleted":"0","num_feature":"192","num_nodes":"25","size_leaf_vector":"1"}},{"base_weights":[2.7508467E-2,-4.5440558E-1,1.062543E-1,-1.0778869E0,-1.8191743E-1,-1.5490689E-2,5.578049E-1,-1.1604924E0,4.113875E-2,3.587854E-1,-7.7072203E-1,-5.9742904E-1,1.0128862E-1,1.6664843E-1,9.301689E-1,-8.093093E-2,-3.648666E-1,-7.827965E-2,2.5773853E-1,-2.8472334E-1,2.2051312E-1,-2.1749993E-1,1.1969956E-1,5.0205927E-2,-2.4941851E-1,2.2207375E-1,-1.8907048E-1,-1.8796514E-1,3.0223778E-1],"categories":[],"categories_nodes":[],"categories_segments":[],"categories_sizes":[],"default_left":[0,0,0,0,0,0,0,0,0,0,0,0,0,0,0,0,0,0,0,0,0,0,0,0,0,0,0,0,0],"id":19,"left_children":[1,3,5,7,9,11,13,15,-1,17,19,21,23,25,27,-1,-1,-1,-1,-1,-1,-1,-1,-1,-1,-1,-1,-1,-1],"loss_changes":[1.9934305E1,1.23401375E1,2.4814774E1,2.3960266E0,1.7007198E1,2.4279701E1,1.3805935E1,9.681339E-1,0E0,9.157768E0,8.031123E0,8.437841E0,1.9237522E1,2.2947735E1,7.473091E0,0E0,0E0,0E0,0E0,0E0,0E0,0E0,0E0,0E0,0E0,0E0,0E0,0E0,0E0],"parents":[2147483647,0,0,1,1,2,2,3,3,4,4,5,5,6,6,7,7,9,9,10,10,11,11,12,12,13,13,14,14],"right_children":[2,4,6,8,10,12,14,16,-1,18,20,22,24,26,28,-1,-1,-1,-1,-1,-1,-1,-1,-1,-1,-1,-1,-1,-1],"split_conditions":[3.7098E1,1E0,1.5216923E-2,3.5E1,2.24E2,5.9294376E1,5.59835E1,3.9820802E-1,4.113875E-2,1.3876694E2,5.079742E0,5.087517E0,1E0,9.908E0,4.4988475E0,-8.093093E-2,-3.648666E-1,-7.827965E-2,2.5773853E-1,-2.8472334E-1,2.2051312E-1,-2.1749993E-1,1.1969956E-1,5.0205927E-2,-2.4941851E-1,2.2207375E-1,-1.8907048E-1,-1.8796514E-1,3.0223778E-1],"split_indices":[2,32,24,2,8,2,189,18,0,8,16,157,107,191,190,0,0,0,0,0,0,0,0,0,0,0,0,0,0],"split_type":[0,0,0,0,0,0,0,0,0,0,0,0,0,0,0,0,0,0,0,0,0,0,0,0,0,0,0,0,0],"sum_hessian":[5.2302344E2,7.278968E1,4.5023373E2,2.1238367E1,5.1551315E1,3.5538275E2,9.4850975E1,1.9931269E1,1.307099E0,2.7077E1,2.4474318E1,5.870855E1,2.966742E2,4.6964172E1,4.7886803E1,1.819281E0,1.8111986E1,1.2415079E1,1.4661921E1,2.2075861E1,2.3984566E0,5.191363E1,6.79492E0,2.7746136E2,1.9212854E1,2.7280663E1,1.968351E1,2.2561564E0,4.5630646E1],"tree_param":{"num_deleted":"0","num_feature":"192","num_nodes":"29","size_leaf_vector":"1"}},{"base_weights":[-3.8456076E-3,8.4481694E-2,-4.781052E-1,-4.9696762E-2,3.1894046E-1,-8.2886803E-1,-2.1406773E-1,1.0256608E-2,-8.104335E-1,-9.568627E-1,3.057663E-1,4.2348284E-1,-4.8559883E-1,7.122198E-2,-5.952981E-2,-2.891893E-1,1.617726E-1,-3.2722086E-1,2.1326464E-1,-1.2945916E-1,2.730915E-1,1.4799532E-1,-1.8901315E-1],"categories":[],"categories_nodes":[],"categories_segments":[],"categories_sizes":[],"default_left":[0,0,0,0,0,0,0,0,0,0,0,0,0,0,0,0,0,0,0,0,0,0,0],"id":20,"left_children":[1,3,5,7,-1,9,11,13,15,17,-1,19,21,-1,-1,-1,-1,-1,-1,-1,-1,-1,-1],"loss_changes":[2.0530907E1,5.5014027E1,6.9490395E0,1.6650778E1,0E0,8.772276E0,8.0389595E0,1.6513033E1,6.4995747E0,8.452246E0,0E0,6.4161987E0,5.1362724E0,0E0,0E0,0E0,0E0,0E0,0E0,0E0,0E0,0E0,0E0],"parents":[2147483647,0,0,1,1,2,2,3,3,5,5,6,6,7,7,8,8,9,9,11,11,12,12],"right_children":[2,4,6,8,-1,10,12,14,16,18,-1,20,22,-1,-1,-1,-1,-1,-1,-1,-1,-1,-1],"split_conditions":[1E0,1.04875416E-1,2.990653E6,2.723129E0,3.1894046E-1,1.1191497E0,2E0,1E0,1.0044891E0,1.0134383E0,3.057663E-1,1.2577812E-2,9.971579E-1,7.122198E-2,-5.952981E-2,-2.891893E-1,1.617726E-1,-3.2722086E-1,2.1326464E-1,-1.2945916E-1,2.730915E-1,1.4799532E-1,-1.8901315E-1],"split_indices":[151,176,0,187,0,34,154,41,128,64,0,57,86,0,0,0,0,0,0,0,0,0,0],"split_type":[0,0,0,0,0,0,0,0,0,0,0,0,0,0,0,0,0,0,0,0,0,0,0],"sum_hessian":[4.8814975E2,4.1220206E2,7.5947685E1,3.6389645E2,4.8305626E1,3.1698427E1,4.4249256E1,3.382274E2,2.5669052E1,3.0112139E1,1.5862899E0,1.30495405E1,3.1199717E1,1.6179086E2,1.7643652E2,2.3134867E1,2.5341854E0,2.8000572E1,2.1115654E0,4.827754E0,8.221786E0,3.8648412E0,2.7334875E1],"tree_param":{"num_deleted":"0","num_feature":"192","num_nodes":"23","size_leaf_vector":"1"}},{"base_weights":[7.91073E-3,4.266863E-2,-2.9513794E-1,1.2242825E-1,-3.5851753E-1,5.189593E-4,3.520505E-1,-6.4754784E-1,2.3067147E-1,1.2785311E-1,-2.6519947E-2,-3.0530107E-1,-6.533731E-2,-2.7496192E-1,1.55401E-1],"categories":[],"categories_nodes":[],"categories_segments":[],"categories_sizes":[],"default_left":[0,0,0,0,0,0,0,0,0,0,0,0,0,0,0],"id":21,"left_children":[1,3,-1,5,7,9,-1,11,13,-1,-1,-1,-1,-1,-1],"loss_changes":[1.6092154E1,1.4306866E1,0E0,4.837221E1,1.2780991E1,1.3032367E1,0E0,7.941139E0,9.034387E0,0E0,0E0,0E0,0E0,0E0,0E0],"parents":[2147483647,0,0,1,1,3,3,4,4,5,5,7,7,8,8],"right_children":[2,4,-1,6,8,10,-1,12,14,-1,-1,-1,-1,-1,-1],"split_conditions":[4.31E2,1E0,-2.9513794E-1,1.2007007E-2,3.3011937E-1,1E0,3.520505E-1,6.5066795E1,6.6E1,1.2785311E-1,-2.6519947E-2,-3.0530107E-1,-6.533731E-2,-2.7496192E-1,1.55401E-1],"split_indices":[30,79,0,79,181,26,0,30,2,0,0,0,0,0,0],"split_type":[0,0,0,0,0,0,0,0,0,0,0,0,0,0,0],"sum_hessian":[4.5918765E2,4.4473944E2,1.444822E1,3.7156384E2,7.317559E1,3.342988E2,3.7265038E1,4.9026356E1,2.4149235E1,5.7107384E1,2.7719144E2,2.5129562E1,2.3896793E1,4.445908E0,1.9703327E1],"tree_param":{"num_deleted":"0","num_feature":"192","num_nodes":"15","size_leaf_vector":"1"}},{"base_weights":[-4.2308256E-2,-1.9725971E-1,1.8951364E-1,1.24496035E-1,-3.7447873E-1,3.3551955E-1,-1.958421E-1,-1.4912483E-1,1.1119001E0,-5.956127E-1,1.8928824E-1,-5.4935217E-1,8.4305845E-2,-1.7852278E-1,7.173445E-2,1.2582034E-1,9.414442E-1,-1.9279636E-1,2.3737134E-1,1.7108363E-1,-1.9134325E-1,-2.6374295E-1,-1.0018008E-3,-8.646686E-2,2.1372849E-1],"categories":[],"categories_nodes":[],"categories_segments":[],"categories_sizes":[],"default_left":[0,0,0,0,0,0,0,0,0,0,0,0,0,0,0,0,0,0,0,0,0,0,0,0,0],"id":22,"left_children":[1,3,5,7,9,-1,11,13,15,17,19,21,23,-1,-1,-1,-1,-1,-1,-1,-1,-1,-1,-1,-1],"loss_changes":[1.568797E1,1.4965262E1,6.3782177E1,2.5474054E1,2.1176567E1,0E0,1.243527E1,1.329726E1,2.765672E1,9.805794E0,1.6025364E1,1.0295916E1,1.712085E1,0E0,0E0,0E0,0E0,0E0,0E0,0E0,0E0,0E0,0E0,0E0,0E0],"parents":[2147483647,0,0,1,1,2,2,3,3,4,4,6,6,7,7,8,8,9,9,10,10,11,11,12,12],"right_children":[2,4,6,8,10,-1,12,14,16,18,20,22,24,-1,-1,-1,-1,-1,-1,-1,-1,-1,-1,-1,-1],"split_conditions":[1.2577812E-2,2.6394806E2,1E0,1.9653186E2,3.1094036E0,3.3551955E-1,1.188861E2,2.002082E-2,5.3E1,1.0134383E0,5E0,3.3011937E-1,1.33E2,-1.7852278E-1,7.173445E-2,1.2582034E-1,9.414442E-1,-1.9279636E-1,2.3737134E-1,1.7108363E-1,-1.9134325E-1,-2.6374295E-1,-1.0018008E-3,-8.646686E-2,2.1372849E-1],"split_indices":[57,5,57,5,13,0,190,20,188,64,26,181,28,0,0,0,0,0,0,0,0,0,0,0,0],"split_type":[0,0,0,0,0,0,0,0,0,0,0,0,0,0,0,0,0,0,0,0,0,0,0,0,0],"sum_hessian":[4.34693E2,2.6063306E2,1.7405994E2,9.267374E1,1.679593E2,4.996332E1,1.2409662E2,7.322988E1,1.9443857E1,1.2059874E2,4.7360565E1,5.4439793E1,6.965682E1,3.3677856E1,3.9552025E1,1.5489118E1,3.9547396E0,1.1656737E2,4.0313706E0,3.254814E1,1.4812426E1,3.3150806E1,2.1288986E1,4.4134216E1,2.552261E1],"tree_param":{"num_deleted":"0","num_feature":"192","num_nodes":"25","size_leaf_vector":"1"}},{"base_weights":[-7.944966E-3,2.5800703E-2,-9.700931E-1,-7.743552E-2,3.4442264E-1,-3.2540675E-2,-3.0628332E-1,-3.1337127E-1,8.5191056E-2,3.0431893E-1,8.06322E-3,-2.1101646E-2,-1.9721289E-1,3.372385E-1,-2.5505688E-2,1.7811748E-1,-6.216511E-2],"categories":[],"categories_nodes":[],"categories_segments":[],"categories_sizes":[],"default_left":[0,0,0,0,0,0,0,0,0,0,0,0,0,0,0,0,0],"id":23,"left_children":[1,3,5,7,9,-1,-1,11,13,-1,15,-1,-1,-1,-1,-1,-1],"loss_changes":[1.3217045E1,1.2970546E1,6.342039E-1,1.1461859E1,2.212595E1,0E0,0E0,1.0332944E1,3.2027096E1,0E0,8.595649E0,0E0,0E0,0E0,0E0,0E0,0E0],"parents":[2147483647,0,0,1,1,2,2,3,3,4,4,7,7,8,8,10,10],"right_children":[2,4,6,8,10,-1,-1,12,14,-1,16,-1,-1,-1,-1,-1,-1],"split_conditions":[6E0,1.6636957E-1,9.99459E0,3.100677E-1,9.9984926E-1,-3.2540675E-2,-3.0628332E-1,2.24E2,1E0,3.0431893E-1,3.4809685E1,-2.1101646E-2,-1.9721289E-1,3.372385E-1,-2.5505688E-2,1.7811748E-1,-6.216511E-2],"split_indices":[148,132,25,30,100,0,0,8,48,0,190,0,0,0,0,0,0],"split_type":[0,0,0,0,0,0,0,0,0,0,0,0,0,0,0,0,0],"sum_hessian":[4.053041E2,3.9251065E2,1.2793443E1,2.97028E2,9.548264E1,1.0599868E0,1.1733456E1,1.2081901E2,1.76209E2,3.0858519E1,6.462412E1,7.227057E1,4.8548435E1,2.3868984E1,1.5234001E2,1.6889652E1,4.773447E1],"tree_param":{"num_deleted":"0","num_feature":"192","num_nodes":"17","size_leaf_vector":"1"}},{"base_weights":[3.6097422E-2,7.22662E-2,-8.5034055E-1,1.8615969E-2,9.8818964E-1,-2.87085E-1,-3.4062824E-1,6.911534E-2,-6.004912E-1,9.7539973E-1,5.286676E-1,-2.3637943E-1,1.7428944E-1,-1.0714927E-2,1.2199596E-1,-2.3164468E-1,1.5790004E-1,-2.2461954E-1,2.745854E-1],"categories":[],"categories_nodes":[],"categories_segments":[],"categories_sizes":[],"default_left":[0,0,0,0,0,0,0,0,0,0,0,0,0,0,0,0,0,0,0],"id":24,"left_children":[1,3,5,7,9,-1,11,13,15,-1,17,-1,-1,-1,-1,-1,-1,-1,-1],"loss_changes":[1.2308514E1,1.8061733E1,5.755148E-1,1.0940149E1,1.977514E1,0E0,2.322711E0,1.16622095E1,5.8243885E0,0E0,9.98038E0,0E0,0E0,0E0,0E0,0E0,0E0,0E0,0E0],"parents":[2147483647,0,0,1,1,2,2,3,3,4,4,6,6,7,7,8,8,10,10],"right_children":[2,4,6,8,10,-1,12,14,16,-1,18,-1,-1,-1,-1,-1,-1,-1,-1],"split_conditions":[9.1E2,1.53E2,2.25E2,2E0,9.465395E1,-2.87085E-1,3.110198E2,1.7184876E-1,1.001766E0,9.7539973E-1,1.2577812E-2,-2.3637943E-1,1.7428944E-1,-1.0714927E-2,1.2199596E-1,-2.3164468E-1,1.5790004E-1,-2.2461954E-1,2.745854E-1],"split_indices":[188,188,2,142,190,0,10,169,118,0,57,0,0,0,0,0,0,0,0],"split_type":[0,0,0,0,0,0,0,0,0,0,0,0,0,0,0,0,0,0,0],"sum_hessian":[3.80988E2,3.6693466E2,1.4053332E1,3.4759464E2,1.9340036E1,1.0680991E1,3.3723414E0,3.2220163E2,2.5393E1,2.193378E0,1.7146658E1,2.3552382E0,1.0171033E0,2.4712302E2,7.507861E1,2.2165714E1,3.227285E0,3.8340206E0,1.3312638E1],"tree_param":{"num_deleted":"0","num_feature":"192","num_nodes":"19","size_leaf_vector":"1"}},{"base_weights":[1.3444835E-2,4.1452765E-2,-8.5256124E-1,2.8092286E-1,-1.00889295E-1,-2.8098053E-1,1.4928828E-2,3.9448285E-1,-7.690948E-1,4.099743E-1,-2.342246E-1,2.2375646E-1,2.2850068E-2,-2.5698861E-2,-2.529688E-1,2.2139646E-1,-1.2988493E-1,-8.9003064E-2,2.4872847E-1],"categories":[],"categories_nodes":[],"categories_segments":[],"categories_sizes":[],"default_left":[0,0,0,0,0,0,0,0,0,0,0,0,0,0,0,0,0,0,0],"id":25,"left_children":[1,3,5,7,9,-1,-1,11,13,15,17,-1,-1,-1,-1,-1,-1,-1,-1],"loss_changes":[9.039718E0,1.2318659E1,1.0512457E0,1.6363075E1,1.5550024E1,0E0,0E0,1.3914871E1,7.004862E-1,1.3843667E1,1.3037099E1,0E0,0E0,0E0,0E0,0E0,0E0,0E0,0E0],"parents":[2147483647,0,0,1,1,2,2,3,3,4,4,7,7,8,8,9,9,10,10],"right_children":[2,4,6,8,10,-1,-1,12,14,16,18,-1,-1,-1,-1,-1,-1,-1,-1],"split_conditions":[9.1E2,1E0,2.4917097E2,4.28E2,1E0,-2.8098053E-1,1.4928828E-2,1.7E1,1E0,2.24E2,7.0993853E0,2.2375646E-1,2.2850068E-2,-2.5698861E-2,-2.529688E-1,2.2139646E-1,-1.2988493E-1,-8.9003064E-2,2.4872847E-1],"split_indices":[188,33,191,10,26,0,0,12,86,8,24,0,0,0,0,0,0,0,0],"split_type":[0,0,0,0,0,0,0,0,0,0,0,0,0,0,0,0,0,0,0],"sum_hessian":[3.7023743E2,3.5956082E2,1.06765995E1,1.3368365E2,2.2587717E2,9.613511E0,1.0630879E0,1.2120011E2,1.2483549E1,4.6322277E1,1.7955489E2,5.612405E1,6.5076065E1,1.5935078E0,1.0890041E1,3.3240864E1,1.3081414E1,1.6983337E2,9.721514E0],"tree_param":{"num_deleted":"0","num_feature":"192","num_nodes":"19","size_leaf_vector":"1"}},{"base_weights":[-9.602802E-3,1.3104746E-1,-2.3963712E-1,-4.620268E-2,3.381568E-1,-3.2011074E-1,1.0034212E0,2.282979E-1,-2.2533654E-1,-6.389023E-2,-6.6604775E-1,-9.060081E-3,3.440132E-1,1.06062636E-1,-2.5747663E-1,-1.4346957E-1,8.0592506E-2,1.0215569E-1,-1.2605707E-1,-3.2114172E-1,-1.24110386E-1],"categories":[],"categories_nodes":[],"categories_segments":[],"categories_sizes":[],"default_left":[0,0,0,0,0,0,0,0,0,0,0,0,0,0,0,0,0,0,0,0,0],"id":26,"left_children":[1,3,5,7,-1,9,11,13,15,17,19,-1,-1,-1,-1,-1,-1,-1,-1,-1,-1],"loss_changes":[1.1535949E1,3.965409E1,1.3852955E1,9.355617E0,0E0,1.128564E1,1.4093132E0,1.0989513E1,1.4916203E1,1.1145366E1,5.148653E0,0E0,0E0,0E0,0E0,0E0,0E0,0E0,0E0,0E0,0E0],"parents":[2147483647,0,0,1,1,2,2,3,3,5,5,6,6,7,7,8,8,9,9,10,10],"right_children":[2,4,6,8,-1,10,12,14,16,18,20,-1,-1,-1,-1,-1,-1,-1,-1,-1,-1],"split_conditions":[2E0,1.0063646E0,1.1191497E0,2.9478906E2,3.381568E-1,9.633E3,1.2E2,2.0714479E2,1.5801123E2,1.7E1,4.044687E0,-9.060081E-3,3.440132E-1,1.06062636E-1,-2.5747663E-1,-1.4346957E-1,8.0592506E-2,1.0215569E-1,-1.2605707E-1,-3.2114172E-1,-1.24110386E-1],"split_indices":[26,26,34,5,0,4,30,173,190,12,27,0,0,0,0,0,0,0,0,0,0],"split_type":[0,0,0,0,0,0,0,0,0,0,0,0,0,0,0,0,0,0,0,0,0],"sum_hessian":[3.545792E2,2.203069E2,1.342723E2,1.8821556E2,3.2091328E1,1.2680557E2,7.46671E0,7.42153E1,1.1400027E2,7.352988E1,5.32757E1,1.0900398E0,6.3766704E0,6.698313E1,7.2321672E0,7.501231E1,3.898796E1,3.4534172E1,3.8995705E1,1.8576889E1,3.469881E1],"tree_param":{"num_deleted":"0","num_feature":"192","num_nodes":"21","size_leaf_vector":"1"}},{"base_weights":[-5.494843E-3,-5.1118735E-2,6.2297225E-1,-4.140259E-1,2.7553245E-2,2.966277E-1,7.120394E-2,-4.971006E-1,2.4828188E-1,1.0946507E-1,-3.8590795E-1,4.7166392E-1,-1.9873258E-1,-3.6874857E-2,-2.4205577E-1,1.1908111E-2,3.1242043E-1,3.0567083E-1,-1.5445615E-1,2.957824E-1,-1.11385606E-1],"categories":[],"categories_nodes":[],"categories_segments":[],"categories_sizes":[],"default_left":[0,0,0,0,0,0,0,0,0,0,0,0,0,0,0,0,0,0,0,0,0],"id":27,"left_children":[1,3,5,7,9,-1,11,13,-1,15,17,19,-1,-1,-1,-1,-1,-1,-1,-1,-1],"loss_changes":[9.698433E0,9.011625E0,4.697953E0,6.26182E0,8.84816E0,0E0,3.3977826E0,6.2489977E0,0E0,1.4210522E1,8.807928E0,3.6399148E0,0E0,0E0,0E0,0E0,0E0,0E0,0E0,0E0,0E0],"parents":[2147483647,0,0,1,1,2,2,3,3,4,4,6,6,7,7,9,9,10,10,11,11],"right_children":[2,4,6,8,10,-1,12,14,-1,16,18,20,-1,-1,-1,-1,-1,-1,-1,-1,-1],"split_conditions":[7.940558E-2,4.6523E1,1E0,1.9236946E1,1E0,2.966277E-1,3.0854738E0,1.9720793E0,2.4828188E-1,1.8868804E-2,1.804E3,2.480052E1,-1.9873258E-1,-3.6874857E-2,-2.4205577E-1,1.1908111E-2,3.1242043E-1,3.0567083E-1,-1.5445615E-1,2.957824E-1,-1.11385606E-1],"split_indices":[174,2,147,20,17,0,14,14,0,17,4,177,0,0,0,0,0,0,0,0,0],"split_type":[0,0,0,0,0,0,0,0,0,0,0,0,0,0,0,0,0,0,0,0,0],"sum_hessian":[3.3613068E2,3.1423712E2,2.1893545E1,5.5225216E1,2.5901193E2,1.2516059E1,9.377486E0,5.2352768E1,2.8724515E0,2.1679698E2,4.2214943E1,6.325399E0,3.0520868E0,2.4798906E1,2.755386E1,2.0294635E2,1.3850622E1,3.0966907E0,3.911825E1,3.7933047E0,2.5320942E0],"tree_param":{"num_deleted":"0","num_feature":"192","num_nodes":"21","size_leaf_vector":"1"}},{"base_weights":[2.915672E-3,-3.5671166E-1,6.2075686E-2,4.361454E-2,-9.0783167E-1,-2.2178939E-1,1.9233681E-1,3.993049E-1,-2.8203142E-1,-9.610145E-1,6.866076E-3,-1.1261547E0,-5.9796587E-2,1.0531977E0,3.402988E-2,2.6074424E-1,-5.8593336E-2,-9.378155E-2,-3.0575556E-1,-4.0349934E-1,-5.5088777E-2,7.62402E-2,-1.3443194E-1,1.0749056E-1,3.2140335E-1,-6.378751E-2,7.437803E-2],"categories":[],"categories_nodes":[],"categories_segments":[],"categories_sizes":[],"default_left":[0,0,0,0,0,0,0,0,0,0,0,0,0,0,0,0,0,0,0,0,0,0,0,0,0,0,0],"id":28,"left_children":[1,3,5,7,9,11,13,15,-1,17,-1,19,21,23,25,-1,-1,-1,-1,-1,-1,-1,-1,-1,-1,-1,-1],"loss_changes":[6.9503946E0,1.0221634E1,1.0414347E1,1.0177483E1,9.859638E-1,1.2926113E1,2.623917E1,6.2217484E0,0E0,5.092602E-1,0E0,2.7101192E0,9.633119E0,2.4519348E-1,8.909583E0,0E0,0E0,0E0,0E0,0E0,0E0,0E0,0E0,0E0,0E0,0E0,0E0],"parents":[2147483647,0,0,1,1,2,2,3,3,4,4,5,5,6,6,7,7,9,9,11,11,12,12,13,13,14,14],"right_children":[2,4,6,8,10,12,14,16,-1,18,-1,20,22,24,26,-1,-1,-1,-1,-1,-1,-1,-1,-1,-1,-1,-1],"split_conditions":[1.9207933E2,1.77E2,1.5695905E-2,4.52E2,2.38394E5,2.1772856E1,1E0,1E0,-2.8203142E-1,1.5400217E2,6.866076E-3,1.8E1,9.645206E1,4E0,1.00205025E2,2.6074424E-1,-5.8593336E-2,-9.378155E-2,-3.0575556E-1,-4.0349934E-1,-5.5088777E-2,7.62402E-2,-1.3443194E-1,1.0749056E-1,3.2140335E-1,-6.378751E-2,7.437803E-2],"split_indices":[10,10,66,5,1,190,65,66,0,5,0,188,190,188,2,0,0,0,0,0,0,0,0,0,0,0,0],"split_type":[0,0,0,0,0,0,0,0,0,0,0,0,0,0,0,0,0,0,0,0,0,0,0,0,0,0,0],"sum_hessian":[3.2464374E2,4.5150303E1,2.794934E2,2.668647E1,1.8463833E1,8.76921E1,1.9180132E2,2.0099356E1,6.5871143E0,1.7435575E1,1.0282569E0,1.2417337E1,7.5274765E1,2.891436E1,1.6288696E2,1.087671E1,9.222646E0,2.254981E0,1.5180595E1,9.577947E0,2.839391E0,4.1891262E1,3.3383507E1,1.7833229E0,2.7131037E1,7.579573E1,8.709123E1],"tree_param":{"num_deleted":"0","num_feature":"192","num_nodes":"27","size_leaf_vector":"1"}},{"base_weights":[9.774294E-3,3.4838006E-2,-2.698688E-1,-1.7700205E-2,4.809659E-1,5.1816612E-2,-5.2451104E-1,-2.3982443E-1,7.800578E-1,-1.0624713E-2,1.7461535E-1,-2.2919492E-1,1.0298638E-1,-3.3597577E-2,3.0424693E-1],"categories":[],"categories_nodes":[],"categories_segments":[],"categories_sizes":[],"default_left":[0,0,0,0,0,0,0,0,0,0,0,0,0,0,0],"id":29,"left_children":[1,3,-1,5,7,9,11,-1,13,-1,-1,-1,-1,-1,-1],"loss_changes":[7.178874E0,7.103111E0,0E0,9.60182E0,1.2947857E1,1.1316135E1,7.3919697E0,0E0,5.9277744E0,0E0,0E0,0E0,0E0,0E0,0E0],"parents":[2147483647,0,0,1,1,3,3,4,4,5,5,6,6,8,8],"right_children":[2,4,-1,6,8,10,12,-1,14,-1,-1,-1,-1,-1,-1],"split_conditions":[4.31E2,1.5759284E-2,-2.698688E-1,2.29754E5,2.98898E6,1.93148E5,2.0511541E0,-2.3982443E-1,3.3E1,-1.0624713E-2,1.7461535E-1,-2.2919492E-1,1.0298638E-1,-3.3597577E-2,3.0424693E-1],"split_indices":[30,94,0,1,0,1,18,0,30,0,0,0,0,0,0],"split_type":[0,0,0,0,0,0,0,0,0,0,0,0,0,0,0],"sum_hessian":[3.0894296E2,3.0168655E2,7.256408E0,2.7076074E2,3.0925789E1,2.3889098E2,3.1869772E1,5.5002565E0,2.5425531E1,2.0617984E2,3.271114E1,2.488791E1,6.9818597E0,5.608991E0,1.981654E1],"tree_param":{"num_deleted":"0","num_feature":"192","num_nodes":"15","size_leaf_vector":"1"}},{"base_weights":[-5.1740985E-3,2.4336372E-2,-7.8562605E-1,-3.541811E-2,4.9046633E-1,-2.8380728E-1,1.1587207E-1,8.920546E-2,-2.816207E-1,6.472393E-1,-6.3346416E-1,-4.4494993E-3,2.9420048E-1,5.84293E-2,-1.300321E-1,2.201148E-1,-2.4818195E-1,-2.4612439E-1,7.114512E-3],"categories":[],"categories_nodes":[],"categories_segments":[],"categories_sizes":[],"default_left":[0,0,0,0,0,0,0,0,0,0,0,0,0,0,0,0,0,0,0],"id":30,"left_children":[1,3,5,7,9,-1,-1,11,13,15,17,-1,-1,-1,-1,-1,-1,-1,-1],"loss_changes":[7.020344E0,8.202892E0,2.6168346E0,8.046159E0,6.3056936E0,0E0,0E0,1.6421957E1,6.706397E0,4.841119E0,6.150025E-1,0E0,0E0,0E0,0E0,0E0,0E0,0E0,0E0],"parents":[2147483647,0,0,1,1,2,2,3,3,4,4,7,7,8,8,9,9,10,10],"right_children":[2,4,6,8,10,-1,-1,12,14,16,18,-1,-1,-1,-1,-1,-1,-1,-1],"split_conditions":[1E0,6.8146978E-3,7.1535974E0,2E0,9.9984926E-1,-2.8380728E-1,1.1587207E-1,1.0122504E0,2.989048E6,5E2,8.349346E-2,-4.4494993E-3,2.9420048E-1,5.84293E-2,-1.300321E-1,2.201148E-1,-2.4818195E-1,-2.4612439E-1,7.114512E-3],"split_indices":[160,161,157,154,151,0,0,154,0,132,172,0,0,0,0,0,0,0,0],"split_type":[0,0,0,0,0,0,0,0,0,0,0,0,0,0,0,0,0,0,0],"sum_hessian":[3.0298468E2,2.9287915E2,1.0105536E1,2.6041928E2,3.245985E1,8.981397E0,1.12414E0,1.7332353E2,8.709576E1,2.8858599E1,3.6012533E0,1.562742E2,1.7049334E1,2.144461E1,6.5651146E1,2.7588877E1,1.2697226E0,2.5697036E0,1.0315497E0],"tree_param":{"num_deleted":"0","num_feature":"192","num_nodes":"19","size_leaf_vector":"1"}},{"base_weights":[-5.4503374E-2,-2.369988E-2,-7.693746E-1,-1.21667355E-1,2.3284788E-1,-2.8131172E-1,-2.1210535E-1,-1.9473492E-1,5.8363545E-1,2.9280686E-1,2.2150202E-2,1.636066E-1,-2.1346919E-1,-9.286738E-2,5.8810323E-2,2.6618493E-1,-2.0254263E-1,-8.321661E-2,1.3836773E-1],"categories":[],"categories_nodes":[],"categories_segments":[],"categories_sizes":[],"default_left":[0,0,0,0,0,0,0,0,0,0,0,0,0,0,0,0,0,0,0],"id":31,"left_children":[1,3,5,7,9,-1,11,13,15,-1,17,-1,-1,-1,-1,-1,-1,-1,-1],"loss_changes":[6.334929E0,7.0059576E0,9.876609E-1,1.0501096E1,1.22335205E1,0E0,2.0207214E0,8.605371E0,8.244266E0,0E0,8.379593E0,0E0,0E0,0E0,0E0,0E0,0E0,0E0,0E0],"parents":[2147483647,0,0,1,1,2,2,3,3,4,4,6,6,7,7,8,8,10,10],"right_children":[2,4,6,8,10,-1,12,14,16,-1,18,-1,-1,-1,-1,-1,-1,-1,-1],"split_conditions":[5E0,2.2100027E-1,5.1E1,1.0313448E0,1E0,-2.8131172E-1,7.9E1,2.018445E0,1.9974638E0,2.9280686E-1,1.0069004E0,1.636066E-1,-2.1346919E-1,-9.286738E-2,5.8810323E-2,2.6618493E-1,-2.0254263E-1,-8.321661E-2,1.3836773E-1],"split_indices":[148,175,188,46,150,0,188,23,21,0,150,0,0,0,0,0,0,0,0],"split_type":[0,0,0,0,0,0,0,0,0,0,0,0,0,0,0,0,0,0,0],"sum_hessian":[2.8751086E2,2.766244E2,1.0886475E1,2.0056189E2,7.606249E1,7.7028184E0,3.1836562E0,1.823906E2,1.8171297E1,1.5794397E1,6.0268097E1,1.2368664E0,1.9467897E0,1.4029874E2,4.209187E1,1.4793386E1,3.3779109E0,3.6067383E1,2.4200712E1],"tree_param":{"num_deleted":"0","num_feature":"192","num_nodes":"19","size_leaf_vector":"1"}},{"base_weights":[1.1659549E-2,-2.1917027E-1,1.0112681E-1,-3.4362462E-1,3.9523202E-1,3.052427E-1,6.9592195E-4,-5.2944213E-1,2.0162614E-1,7.0203996E-1,-4.8386732E-1,6.5356797E-1,-8.1645586E-2,2.6017696E-2,-2.5503382E-1,-2.2929725E-1,1.687766E-1,-5.9333604E-2,2.772852E-1,6.652228E-2,-2.4020492E-1,-1.2182852E-2,4.4067895E-1,-1.20259166E-1,3.7623823E-2],"categories":[],"categories_nodes":[],"categories_segments":[],"categories_sizes":[],"default_left":[0,0,0,0,0,0,0,0,0,0,0,0,0,0,0,0,0,0,0,0,0,0,0,0,0],"id":32,"left_children":[1,3,5,7,9,-1,11,13,15,17,19,21,23,-1,-1,-1,-1,-1,-1,-1,-1,-1,-1,-1,-1],"loss_changes":[5.7204576E0,6.0533123E0,1.8605045E1,6.680997E0,3.9809783E0,0E0,9.786816E0,1.0012158E1,6.6122217E0,2.378901E0,1.1258979E0,1.1856974E1,1.0975151E1,0E0,0E0,0E0,0E0,0E0,0E0,0E0,0E0,0E0,0E0,0E0,0E0],"parents":[2147483647,0,0,1,1,2,2,3,3,4,4,6,6,7,7,8,8,9,9,10,10,11,11,12,12],"right_children":[2,4,6,8,10,-1,12,14,16,18,20,22,24,-1,-1,-1,-1,-1,-1,-1,-1,-1,-1,-1,-1],"split_conditions":[2.2665186E-2,1.0055416E0,1E0,1.5759284E-2,1E0,3.052427E-1,1E0,1.41475E5,1.2927286E2,6.1E1,6E0,1.5953995E-1,1.57315E5,2.6017696E-2,-2.5503382E-1,-2.2929725E-1,1.687766E-1,-5.9333604E-2,2.772852E-1,6.652228E-2,-2.4020492E-1,-1.2182852E-2,4.4067895E-1,-1.20259166E-1,3.7623823E-2],"split_indices":[145,159,145,94,79,0,18,1,30,30,188,18,1,0,0,0,0,0,0,0,0,0,0,0,0],"split_type":[0,0,0,0,0,0,0,0,0,0,0,0,0,0,0,0,0,0,0,0,0,0,0,0,0],"sum_hessian":[2.7492355E2,7.638831E1,1.9853523E2,6.388781E1,1.25005045E1,1.847623E1,1.80059E2,4.7670906E1,1.6216906E1,9.415782E0,3.0847225E0,1.9389065E1,1.6066994E2,1.6890406E1,3.0780499E1,4.1382895E0,1.2078617E1,1.9633857E0,7.452397E0,1.0715731E0,2.0131493E0,1.108983E1,8.299234E0,6.2550842E1,9.8119095E1],"tree_param":{"num_deleted":"0","num_feature":"192","num_nodes":"25","size_leaf_vector":"1"}},{"base_weights":[-9.054604E-3,1.5649738E-2,-3.00826E-1,-3.2174777E-2,8.516744E-1,3.9598353E-2,-4.1490582E-1,9.7905225E-1,-1.1353024E-1,-1.9650666E-2,1.6560781E-1,-1.7191148E-1,2.9405707E-1,6.6193473E-3,3.143484E-1],"categories":[],"categories_nodes":[],"categories_segments":[],"categories_sizes":[],"default_left":[0,0,0,0,0,0,0,0,0,0,0,0,0,0,0],"id":33,"left_children":[1,3,-1,5,7,9,11,13,-1,-1,-1,-1,-1,-1,-1],"loss_changes":[6.427651E0,1.0138334E1,0E0,6.6136966E0,2.5325203E0,1.1200444E1,9.395796E0,9.6484184E-1,0E0,0E0,0E0,0E0,0E0,0E0,0E0],"parents":[2147483647,0,0,1,1,3,3,4,4,5,5,6,6,7,7],"right_children":[2,4,-1,6,8,10,12,14,-1,-1,-1,-1,-1,-1,-1],"split_conditions":[3.6E1,1.2709956E1,-3.00826E-1,3E0,8.4238863E-1,2.0381184E0,1.1191497E0,1.8157454E0,-1.1353024E-1,-1.9650666E-2,1.6560781E-1,-1.7191148E-1,2.9405707E-1,6.6193473E-3,3.143484E-1],"split_indices":[26,13,0,26,58,13,34,26,0,0,0,0,0,0,0],"split_type":[0,0,0,0,0,0,0,0,0,0,0,0,0,0,0],"sum_hessian":[2.5708746E2,2.5188411E2,5.203362E0,2.391643E2,1.2719802E1,2.0215158E2,3.7012726E1,1.1717838E1,1.0019631E0,1.6862318E2,3.3528404E1,3.365437E1,3.3583562E0,1.0169443E0,1.0700894E1],"tree_param":{"num_deleted":"0","num_feature":"192","num_nodes":"15","size_leaf_vector":"1"}},{"base_weights":[-7.0710643E-3,-4.7127646E-1,4.4451788E-2,-7.054301E-1,2.2324434E-1,7.220509E-2,-2.790421E-1,1.7608693E-1,-8.5460484E-1,3.7808457E-1,-9.855817E-3,-3.3199418E-1,-1.5998308E-1,-2.3626044E-1,1.5667245E-1,1.8716818E-2,-1.5735751E-1],"categories":[],"categories_nodes":[],"categories_segments":[],"categories_sizes":[],"default_left":[0,0,0,0,0,0,0,0,0,0,0,0,0,0,0,0,0],"id":34,"left_children":[1,3,5,7,-1,9,-1,-1,11,13,15,-1,-1,-1,-1,-1,-1],"loss_changes":[6.0211325E0,7.740691E0,6.2700596E0,4.6997643E0,0E0,5.56213E0,0E0,0E0,1.050621E0,8.701813E0,6.708906E0,0E0,0E0,0E0,0E0,0E0,0E0],"parents":[2147483647,0,0,1,1,2,2,3,3,5,5,8,8,9,9,10,10],"right_children":[2,4,6,8,-1,10,-1,-1,12,14,16,-1,-1,-1,-1,-1,-1],"split_conditions":[8.204521E-1,1.0044891E0,7.69E2,1E0,2.2324434E-1,1.47E2,-2.790421E-1,1.7608693E-1,1.8E1,9.3909964E-2,2.29754E5,-3.3199418E-1,-1.5998308E-1,-2.3626044E-1,1.5667245E-1,1.8716818E-2,-1.5735751E-1],"split_indices":[31,127,131,13,0,31,0,0,188,87,1,0,0,0,0,0,0],"split_type":[0,0,0,0,0,0,0,0,0,0,0,0,0,0,0,0,0],"sum_hessian":[2.498733E2,2.4149214E1,2.2572409E2,2.0627773E1,3.521439E0,2.2044377E2,5.2803164E0,1.8172575E0,1.8810516E1,4.5867336E1,1.7457645E2,8.824952E0,9.985564E0,4.716118E0,4.115122E1,1.5389253E2,2.0683912E1],"tree_param":{"num_deleted":"0","num_feature":"192","num_nodes":"17","size_leaf_vector":"1"}},{"base_weights":[3.425545E-2,2.0252836E-1,-1.14134535E-1,-9.593105E-2,3.8623813E-1,4.6918668E-2,-6.2368983E-1,-3.186491E-1,5.237417E-1,7.7693903E-1,-1.8125173E-2,2.905023E-1,-2.658188E-1,-8.0138886E-1,4.3829376E-1,8.756541E-2,-1.7341825E-1,2.2096683E-1,-1.7425384E-1,-1.2233408E-1,2.8505173E-1,-3.064946E-1,1.1068492E-1,1.9701539E-1,-1.9195294E-2,-2.5536236E-1,-4.9252E-3,-2.698306E-1,5.763975E-2,2.607941E-1,-1.6269062E-1],"categories":[],"categories_nodes":[],"categories_segments":[],"categories_sizes":[],"default_left":[0,0,0,0,0,0,0,0,0,0,0,0,0,0,0,0,0,0,0,0,0,0,0,0,0,0,0,0,0,0,0],"id":35,"left_children":[1,3,5,7,9,11,13,15,17,19,21,23,25,27,29,-1,-1,-1,-1,-1,-1,-1,-1,-1,-1,-1,-1,-1,-1,-1,-1],"loss_changes":[6.185864E0,6.3981485E0,1.0844749E1,6.3779387E0,1.1390825E1,7.7765093E0,6.337391E0,5.687228E0,3.4616048E0,8.441591E0,1.4844453E1,7.655934E0,6.6306486E0,3.1579418E0,2.7451932E0,0E0,0E0,0E0,0E0,0E0,0E0,0E0,0E0,0E0,0E0,0E0,0E0,0E0,0E0,0E0,0E0],"parents":[2147483647,0,0,1,1,2,2,3,3,4,4,5,5,6,6,7,7,8,8,9,9,10,10,11,11,12,12,13,13,14,14],"right_children":[2,4,6,8,10,12,14,16,18,20,22,24,26,28,30,-1,-1,-1,-1,-1,-1,-1,-1,-1,-1,-1,-1,-1,-1,-1,-1],"split_conditions":[2E0,1.57315E5,1.2582E4,1.6636957E-1,2E0,1E0,1.7493211E2,1E0,1.5E2,3E0,2.0381184E0,2.989972E6,5.649E3,8.3330154E1,1.0710761E1,8.756541E-2,-1.7341825E-1,2.2096683E-1,-1.7425384E-1,-1.2233408E-1,2.8505173E-1,-3.064946E-1,1.1068492E-1,1.9701539E-1,-1.9195294E-2,-2.5536236E-1,-4.9252E-3,-2.698306E-1,5.763975E-2,2.607941E-1,-1.6269062E-1],"split_indices":[9,1,4,132,13,33,191,145,175,188,13,0,4,176,29,0,0,0,0,0,0,0,0,0,0,0,0,0,0,0,0],"split_type":[0,0,0,0,0,0,0,0,0,0,0,0,0,0,0,0,0,0,0,0,0,0,0,0,0,0,0,0,0,0,0],"sum_hessian":[2.4580597E2,1.15015076E2,1.307909E2,4.4003582E1,7.101149E1,1.0007006E2,3.0720839E1,3.2726906E1,1.1276677E1,3.5647266E1,3.5364227E1,5.629463E1,4.377543E1,2.6527452E1,4.1933856E0,9.86686E0,2.2860046E1,9.677009E0,1.5996684E0,4.621314E0,3.1025951E1,9.381775E0,2.5982452E1,2.6998343E1,2.9296288E1,1.2189774E1,3.1585653E1,2.3993286E1,2.5341666E0,2.9728596E0,1.2205262E0],"tree_param":{"num_deleted":"0","num_feature":"192","num_nodes":"31","size_leaf_vector":"1"}},{"base_weights":[2.650103E-2,6.974489E-2,-5.0768816E-1,-2.0294604E-3,4.928702E-1,-8.0588305E-1,-4.716617E-2,5.464587E-2,-5.0154847E-1,7.9690236E-1,6.0941763E-2,-1.2623666E-1,-2.9360455E-1,5.9829307E-1,-5.410431E-1,-2.4508975E-2,8.255852E-2,1.6155227E-1,-2.3660672E-1,2.7904388E-1,-1.2118695E-1,3.1072596E-1,-7.755638E-2,-1.935807E-1,1.5168615E-1,-1.2473247E-3,2.4761854E-1,-2.5163665E-1,9.4195515E-2],"categories":[],"categories_nodes":[],"categories_segments":[],"categories_sizes":[],"default_left":[0,0,0,0,0,0,0,0,0,0,0,0,0,0,0,0,0,0,0,0,0,0,0,0,0,0,0,0,0],"id":36,"left_children":[1,3,5,7,9,11,13,15,17,19,21,23,-1,25,27,-1,-1,-1,-1,-1,-1,-1,-1,-1,-1,-1,-1,-1,-1],"loss_changes":[5.429355E0,6.5879283E0,2.3799543E0,5.3053994E0,4.0827136E0,1.206912E0,2.8683066E0,5.1967325E0,6.3602347E0,3.5827646E0,4.756794E0,1.4811093E0,0E0,5.6522727E-1,1.6034937E0,0E0,0E0,0E0,0E0,0E0,0E0,0E0,0E0,0E0,0E0,0E0,0E0,0E0,0E0],"parents":[2147483647,0,0,1,1,2,2,3,3,4,4,5,5,6,6,7,7,8,8,9,9,10,10,11,11,13,13,14,14],"right_children":[2,4,6,8,10,12,14,16,18,20,22,24,-1,26,28,-1,-1,-1,-1,-1,-1,-1,-1,-1,-1,-1,-1,-1,-1],"split_conditions":[9.891271E1,6.773933E-3,2.992738E6,2E0,1E0,1.1183952E2,2.21343E5,1.305E2,4.016197E1,9.3E1,1.2020815E1,7.636753E1,-2.9360455E-1,1.0053141E0,3.0648975E2,-2.4508975E-2,8.255852E-2,1.6155227E-1,-2.3660672E-1,2.7904388E-1,-1.2118695E-1,3.1072596E-1,-7.755638E-2,-1.935807E-1,1.5168615E-1,-1.2473247E-3,2.4761854E-1,-2.5163665E-1,9.4195515E-2],"split_indices":[176,151,0,146,35,189,1,2,189,188,190,190,0,153,189,0,0,0,0,0,0,0,0,0,0,0,0,0,0],"split_type":[0,0,0,0,0,0,0,0,0,0,0,0,0,0,0,0,0,0,0,0,0,0,0,0,0,0,0,0,0],"sum_hessian":[2.325001E2,2.1589253E2,1.6607567E1,1.8543292E2,3.0459608E1,9.625182E0,6.9823847E0,1.6733745E2,1.8095472E1,1.7380548E1,1.30790615E1,2.4140725E0,7.2111096E0,2.9350622E0,4.0473223E0,1.0410204E2,6.323541E1,3.810426E0,1.4285047E1,1.5718487E1,1.6620611E0,2.6670527E0,1.0412008E1,1.3093089E0,1.1047636E0,1.105637E0,1.8294253E0,2.9881887E0,1.0591339E0],"tree_param":{"num_deleted":"0","num_feature":"192","num_nodes":"29","size_leaf_vector":"1"}},{"base_weights":[-5.2507934E-3,8.686413E-2,-2.4050744E-1,-4.1800123E-1,1.6140707E-1,-3.737897E-1,5.2635455E-1,3.5856476E-1,-6.156985E-1,2.4569595E-1,-3.436854E-1,-5.153345E-1,6.4754736E-1,9.3144536E-1,-9.062878E-2,-2.1685919E-1,2.9035732E-2,4.5887947E-2,2.0774734E-1,-2.2006522E-1,1.7266788E-1,1.5168217E-1,-1.9313444E-1,3.4347028E-1,-1.1073638E-1,1.3148869E-2,3.2565305E-1,2.6283714E-1,-2.1899715E-1],"categories":[],"categories_nodes":[],"categories_segments":[],"categories_sizes":[],"default_left":[0,0,0,0,0,0,0,0,0,0,0,0,0,0,0,0,0,0,0,0,0,0,0,0,0,0,0,0,0],"id":37,"left_children":[1,3,5,7,9,11,13,-1,15,17,19,21,23,25,27,-1,-1,-1,-1,-1,-1,-1,-1,-1,-1,-1,-1,-1,-1],"loss_changes":[4.9386516E0,6.2324314E0,6.7502713E0,7.6149845E0,6.1920347E0,8.315077E0,2.5610588E0,0E0,1.6994214E0,5.0018125E0,8.159516E0,7.18878E0,4.170031E0,8.5047674E-1,3.719039E0,0E0,0E0,0E0,0E0,0E0,0E0,0E0,0E0,0E0,0E0,0E0,0E0,0E0,0E0],"parents":[2147483647,0,0,1,1,2,2,3,3,4,4,5,5,6,6,8,8,9,9,10,10,11,11,12,12,13,13,14,14],"right_children":[2,4,6,8,10,12,14,-1,16,18,20,22,24,26,28,-1,-1,-1,-1,-1,-1,-1,-1,-1,-1,-1,-1,-1,-1],"split_conditions":[1.2686E4,1.9207933E2,3.35E2,5.3475E1,2.007507E2,2.2E1,2.989972E6,3.5856476E-1,1.5968485E-2,1.5E2,2.993477E6,2.987299E6,2.178132E2,1.496E4,2.25E2,-2.1685919E-1,2.9035732E-2,4.5887947E-2,2.0774734E-1,-2.2006522E-1,1.7266788E-1,1.5168217E-1,-1.9313444E-1,3.4347028E-1,-1.1073638E-1,1.3148869E-2,3.2565305E-1,2.6283714E-1,-2.1899715E-1],"split_indices":[4,10,2,189,189,185,0,0,16,189,0,0,5,4,10,0,0,0,0,0,0,0,0,0,0,0,0,0,0],"split_type":[0,0,0,0,0,0,0,0,0,0,0,0,0,0,0,0,0,0,0,0,0,0,0,0,0,0,0,0,0],"sum_hessian":[2.2593182E2,1.6281303E2,6.31188E1,2.0353699E1,1.4245934E2,5.420962E1,8.909177E0,1.6503614E0,1.8703339E1,1.22525986E2,1.9933346E1,4.8046413E1,6.1632104E0,5.070426E0,3.8387508E0,1.6071278E1,2.6320605E0,1.032389E2,1.9287086E1,1.4074239E1,5.859107E0,5.2997184E0,4.2746693E1,4.017888E0,2.1453218E0,1.0037141E0,4.066712E0,1.3839266E0,2.4548242E0],"tree_param":{"num_deleted":"0","num_feature":"192","num_nodes":"29","size_leaf_vector":"1"}},{"base_weights":[-1.0934401E-2,1.46407895E-2,-7.0522285E-1,-6.723937E-2,2.4063185E-1,-2.8044283E-2,-2.5659987E-1,-5.9999007E-1,7.813568E-3,-7.06075E-1,3.5140714E-1,-2.1821414E-1,1.0899286E-1,2.468558E-2,-1.4517646E-1,-2.51133E-1,-2.684268E-3,6.1923146E-1,7.3576085E-2],"categories":[],"categories_nodes":[],"categories_segments":[],"categories_sizes":[],"default_left":[0,0,0,0,0,0,0,0,0,0,0,0,0,0,0,0,0,0,0],"id":38,"left_children":[1,3,5,7,9,-1,-1,11,13,15,17,-1,-1,-1,-1,-1,-1,-1,-1],"loss_changes":[3.9453533E0,3.9893281E0,6.907258E-1,6.337944E0,6.2597256E0,0E0,0E0,2.8469796E0,5.2891245E0,6.151216E-1,8.805216E0,0E0,0E0,0E0,0E0,0E0,0E0,0E0,0E0],"parents":[2147483647,0,0,1,1,2,2,3,3,4,4,7,7,8,8,9,9,10,10],"right_children":[2,4,6,8,10,-1,-1,12,14,16,18,-1,-1,-1,-1,-1,-1,-1,-1],"split_conditions":[4.0458105E2,6.5066795E1,2E0,2.880118E-2,-7.987902E1,-2.8044283E-2,-2.5659987E-1,1.0103637E0,5.43E2,5.0717373E1,-7.5829025E1,-2.1821414E-1,1.0899286E-1,2.468558E-2,-1.4517646E-1,-2.51133E-1,-2.684268E-3,6.1923146E-1,7.3576085E-2],"split_indices":[30,30,12,146,191,0,0,66,5,132,191,0,0,0,0,0,0,0,0],"split_type":[0,0,0,0,0,0,0,0,0,0,0,0,0,0,0,0,0,0,0],"sum_hessian":[2.2060986E2,2.137162E2,6.8936553E0,1.5739276E2,5.6323433E1,1.7639261E0,5.129729E0,1.8571545E1,1.3882123E2,5.337153E0,5.0986282E1,1.6492142E1,2.0794032E0,1.21262886E2,1.7558336E1,4.2601347E0,1.0770181E0,1.7811399E0,4.9205143E1],"tree_param":{"num_deleted":"0","num_feature":"192","num_nodes":"19","size_leaf_vector":"1"}},{"base_weights":[2.2278132E-2,4.2217437E-2,-7.748198E-1,-3.0419527E-2,2.838966E-1,-2.767022E-1,-1.7586991E-2,-8.43101E-1,2.7423957E-2,8.974924E-2,1.0317775E0,-2.8442734E-1,3.203844E-2,7.577925E-2,-3.32412E-2,1.4917468E-1,-1.2723629E-1,1.0988283E-1,7.4192953E-1],"categories":[],"categories_nodes":[],"categories_segments":[],"categories_sizes":[],"default_left":[0,0,0,0,0,0,0,0,0,0,0,0,0,0,0,0,0,0,0],"id":39,"left_children":[1,3,5,7,9,-1,-1,11,13,15,17,-1,-1,-1,-1,-1,-1,-1,-1],"loss_changes":[3.4501572E0,3.7078176E0,5.4556894E-1,7.682092E0,6.9921722E0,0E0,0E0,1.3044314E0,4.902651E0,8.76117E0,8.758125E0,0E0,0E0,0E0,0E0,0E0,0E0,0E0,0E0],"parents":[2147483647,0,0,1,1,2,2,3,3,4,4,7,7,8,8,9,9,10,10],"right_children":[2,4,6,8,10,-1,-1,12,14,16,18,-1,-1,-1,-1,-1,-1,-1,-1],"split_conditions":[2E0,7.0429146E-3,3.25E2,1.16911E5,2.9E1,-2.767022E-1,-1.7586991E-2,5.301833E0,1.7E1,2.24E2,2.21343E5,-2.8442734E-1,3.203844E-2,7.577925E-2,-3.32412E-2,1.4917468E-1,-1.2723629E-1,1.0988283E-1,7.4192953E-1],"split_indices":[81,165,10,1,12,0,0,13,12,8,1,0,0,0,0,0,0,0,0],"split_type":[0,0,0,0,0,0,0,0,0,0,0,0,0,0,0,0,0,0,0],"sum_hessian":[2.1402057E2,2.0972145E2,4.29912E0,1.6192795E2,4.7793507E1,3.2702773E0,1.0288424E0,9.857522E0,1.5207042E2,3.8832676E1,8.960828E0,8.77611E0,1.0814128E0,5.739288E1,9.467755E1,2.163034E1,1.7202337E1,7.0456176E0,1.9152105E0],"tree_param":{"num_deleted":"0","num_feature":"192","num_nodes":"19","size_leaf_vector":"1"}},{"base_weights":[-5.9761014E-2,-3.9506808E-2,-2.7493566E-1,-8.175524E-2,3.5233304E-1,2.9789472E-2,-2.7658466E-1,-1.9573069E-1,5.89657E-1,6.83585E-2,-3.9088305E-2,-2.0918481E-1,-3.4271695E-2,2.2611676E-1,-1.6696036E-1],"categories":[],"categories_nodes":[],"categories_segments":[],"categories_sizes":[],"default_left":[0,0,0,0,0,0,0,0,0,0,0,0,0,0,0],"id":40,"left_children":[1,3,-1,5,7,9,11,-1,13,-1,-1,-1,-1,-1,-1],"loss_changes":[3.735452E0,3.5186334E0,0E0,4.1612916E0,5.3647795E0,4.003603E0,4.730242E0,0E0,3.8808532E0,0E0,0E0,0E0,0E0,0E0,0E0],"parents":[2147483647,0,0,1,1,3,3,4,4,5,5,6,6,8,8],"right_children":[2,4,-1,6,8,10,12,-1,14,-1,-1,-1,-1,-1,-1],"split_conditions":[3.6E1,1.5759284E-2,-2.7493566E-1,1.7E1,2.989027E6,1E0,2.990554E6,-1.9573069E-1,1.989308E0,6.83585E-2,-3.9088305E-2,-2.0918481E-1,-3.4271695E-2,2.2611676E-1,-1.6696036E-1],"split_indices":[26,94,0,185,0,42,0,0,155,0,0,0,0,0,0],"split_type":[0,0,0,0,0,0,0,0,0,0,0,0,0,0,0],"sum_hessian":[2.1365935E2,2.098069E2,3.852456E0,1.901014E2,1.9705505E1,1.21427956E2,6.867344E1,3.4033663E0,1.630214E1,5.3965282E1,6.746267E1,1.7815681E1,5.0857758E1,1.4468829E1,1.8333092E0],"tree_param":{"num_deleted":"0","num_feature":"192","num_nodes":"15","size_leaf_vector":"1"}},{"base_weights":[-5.821008E-4,-3.8168684E-1,5.673415E-2,-5.178455E-1,6.131613E-1,8.817105E-2,-7.28728E-1,-6.478415E-1,4.5479214E-1,3.14163E-1,-8.4702134E-2,-1.791316E-1,1.8366463E-1,-3.040856E-1,1.17423125E-1,-1.0591247E-1,-2.6830503E-1,2.620523E-1,-9.383222E-2,3.115538E-2,-1.3468891E-1,2.9240152E-1,3.4081466E-2],"categories":[],"categories_nodes":[],"categories_segments":[],"categories_sizes":[],"default_left":[0,0,0,0,0,0,0,0,0,0,0,0,0,0,0,0,0,0,0,0,0,0,0],"id":41,"left_children":[1,3,5,7,9,11,13,15,17,-1,-1,19,21,-1,-1,-1,-1,-1,-1,-1,-1,-1,-1],"loss_changes":[4.654629E0,4.0910583E0,4.638312E0,3.4614496E0,1.832519E0,4.6021066E0,2.8233206E0,1.3585005E0,1.4514959E0,0E0,0E0,3.772295E0,7.1868377E0,0E0,0E0,0E0,0E0,0E0,0E0,0E0,0E0,0E0,0E0],"parents":[2147483647,0,0,1,1,2,2,3,3,4,4,5,5,6,6,7,7,8,8,11,11,12,12],"right_children":[2,4,6,8,10,12,14,16,18,-1,-1,20,22,-1,-1,-1,-1,-1,-1,-1,-1,-1,-1],"split_conditions":[3.7098E1,7.940558E-2,2E0,3.3106287E2,1.891971E0,2.2665186E-2,3.43E2,2.24E2,4.638509E0,3.14163E-1,-8.4702134E-2,2.99E2,1E0,-3.040856E-1,1.17423125E-1,-1.0591247E-1,-2.6830503E-1,2.620523E-1,-9.383222E-2,3.115538E-2,-1.3468891E-1,2.9240152E-1,3.4081466E-2],"split_indices":[2,174,42,10,14,145,10,8,173,0,0,10,145,0,0,0,0,0,0,0,0,0,0],"split_type":[0,0,0,0,0,0,0,0,0,0,0,0,0,0,0,0,0,0,0,0,0,0,0],"sum_hessian":[2.1109862E2,2.6857769E1,1.8424084E2,2.404619E1,2.8115795E0,1.7800424E2,6.2365966E0,2.1505806E1,2.5403838E0,1.7589307E0,1.0526488E0,4.6622936E1,1.313813E2,5.003716E0,1.2328804E0,1.1217899E1,1.0287907E1,1.5384539E0,1.0019299E0,2.3238575E1,2.3384361E1,9.307125E0,1.2207418E2],"tree_param":{"num_deleted":"0","num_feature":"192","num_nodes":"23","size_leaf_vector":"1"}},{"base_weights":[1.0764947E-2,4.2745866E-2,-5.3381926E-1,-1.4297621E-3,6.8978703E-1,3.6286056E-1,-8.124816E-1,6.0290087E-2,-4.7271857E-1,9.4643575E-1,-2.5143218E-1,2.088155E-1,-3.6174446E-2,-2.7013192E-1,-2.4434081E-3,6.7228875E-3,1.9212815E-1,-8.7810885E-3,-3.2096738E-1,4.1892104E-2,3.099776E-1],"categories":[],"categories_nodes":[],"categories_segments":[],"categories_sizes":[],"default_left":[0,0,0,0,0,0,0,0,0,0,0,0,0,0,0,0,0,0,0,0,0],"id":42,"left_children":[1,3,5,7,9,11,13,15,17,19,-1,-1,-1,-1,-1,-1,-1,-1,-1,-1,-1],"loss_changes":[3.604968E0,5.58034E0,3.164006E0,5.3724737E0,5.7272086E0,6.511543E-1,7.1216154E-1,3.5962007E0,5.7476645E0,7.432604E-1,0E0,0E0,0E0,0E0,0E0,0E0,0E0,0E0,0E0,0E0,0E0],"parents":[2147483647,0,0,1,1,2,2,3,3,4,4,5,5,6,6,7,7,8,8,9,9],"right_children":[2,4,6,8,10,12,14,16,18,20,-1,-1,-1,-1,-1,-1,-1,-1,-1,-1,-1],"split_conditions":[2E0,8.037723E0,2.679E3,2.29754E5,4.9E1,9.957886E1,1.38E2,4.0731425E0,2E0,4E0,-2.5143218E-1,2.088155E-1,-3.6174446E-2,-2.7013192E-1,-2.4434081E-3,6.7228875E-3,1.9212815E-1,-8.7810885E-3,-3.2096738E-1,4.1892104E-2,3.099776E-1],"split_indices":[17,13,4,1,188,189,188,143,33,12,0,0,0,0,0,0,0,0,0,0,0],"split_type":[0,0,0,0,0,0,0,0,0,0,0,0,0,0,0,0,0,0,0,0,0],"sum_hessian":[2.0467793E2,1.9419524E2,1.0482684E1,1.8271826E2,1.1476986E1,2.4137065E0,8.068977E0,1.6233145E2,2.0386806E1,1.0165142E1,1.3118446E0,1.1507165E0,1.26299E0,7.068782E0,1.0001961E0,1.535439E2,8.787555E0,1.241543E1,7.971377E0,1.3800904E0,8.785051E0],"tree_param":{"num_deleted":"0","num_feature":"192","num_nodes":"21","size_leaf_vector":"1"}},{"base_weights":[-3.0853681E-2,-2.1133402E-1,7.46738E-2,8.513159E-2,-5.5473363E-1,8.8402015E-1,-1.7524486E-2,5.683374E-1,-3.203483E-1,-6.8327206E-1,7.843052E-1,7.939443E-2,2.8131524E-1,-3.2749012E-1,9.214661E-2,3.897586E-1,-1.4621392E-2,1.4607501E-1,-1.5645105E-1,-2.4391904E-1,4.1409627E-2,1.8855896E-2,3.1958497E-1,9.241818E-2,-1.7140807E-1,5.4722525E-2,-2.5702932E-1],"categories":[],"categories_nodes":[],"categories_segments":[],"categories_sizes":[],"default_left":[0,0,0,0,0,0,0,0,0,0,0,0,0,0,0,0,0,0,0,0,0,0,0,0,0,0,0],"id":43,"left_children":[1,3,5,7,9,11,13,15,17,19,21,-1,-1,23,25,-1,-1,-1,-1,-1,-1,-1,-1,-1,-1,-1,-1],"loss_changes":[3.8276668E0,7.591874E0,9.495029E0,8.1444435E0,6.468648E0,2.6587677E-1,3.9403946E0,8.778338E0,4.093216E0,3.7858486E0,6.689036E-1,0E0,0E0,5.0322285E0,7.7614365E0,0E0,0E0,0E0,0E0,0E0,0E0,0E0,0E0,0E0,0E0,0E0,0E0],"parents":[2147483647,0,0,1,1,2,2,3,3,4,4,5,5,6,6,7,7,8,8,9,9,10,10,13,13,14,14],"right_children":[2,4,6,8,10,12,14,16,18,20,22,-1,-1,24,26,-1,-1,-1,-1,-1,-1,-1,-1,-1,-1,-1,-1],"split_conditions":[1.5695905E-2,2E0,1E0,8.251721E1,4.034449E2,1.3512598E-2,6E0,1.7E1,2.989444E6,8.037723E0,2E0,7.939443E-2,2.8131524E-1,4.394E3,3.29E2,3.897586E-1,-1.4621392E-2,1.4607501E-1,-1.5645105E-1,-2.4391904E-1,4.1409627E-2,1.8855896E-2,3.1958497E-1,9.241818E-2,-1.7140807E-1,5.4722525E-2,-2.5702932E-1],"split_indices":[66,14,65,189,171,65,12,12,0,13,185,0,0,4,31,0,0,0,0,0,0,0,0,0,0,0,0],"split_type":[0,0,0,0,0,0,0,0,0,0,0,0,0,0,0,0,0,0,0,0,0,0,0,0,0,0,0],"sum_hessian":[1.9914487E2,7.310796E1,1.26036896E2,3.9638836E1,3.3469124E1,1.2011124E1,1.1402577E2,1.7902723E1,2.1736115E1,3.0984552E1,2.4845724E0,1.6321466E0,1.0378977E1,2.9281311E1,8.474447E1,7.595996E0,1.0306726E1,4.13737E0,1.7598743E1,2.6494738E1,4.489815E0,1.0714706E0,1.4131017E0,8.179525E0,2.1101786E1,7.803184E1,6.7126307E0],"tree_param":{"num_deleted":"0","num_feature":"192","num_nodes":"27","size_leaf_vector":"1"}},{"base_weights":[8.6456975E-3,-9.955353E-2,1.7206345E-1,-2.6391283E-1,1.5981595E-1,2.7951714E-1,7.670699E-2,-5.7771313E-1,7.628374E-2,-6.511875E-1,3.2500783E-1,1.9615024E-1,-4.0061718E-1,1.3646726E-1,-2.2633326E-1,-2.6904276E-1,7.576012E-2,-3.0793273E-1,2.1848401E-1,2.0089306E-1,-6.1897594E-2,4.2367026E-2,4.604964E-1,4.7400597E-2,-2.2082458E-1],"categories":[],"categories_nodes":[],"categories_segments":[],"categories_sizes":[],"default_left":[0,0,0,0,0,0,0,0,0,0,0,0,0,0,0,0,0,0,0,0,0,0,0,0,0],"id":44,"left_children":[1,3,5,7,9,-1,11,13,15,17,19,21,23,-1,-1,-1,-1,-1,-1,-1,-1,-1,-1,-1,-1],"loss_changes":[3.4383082E0,5.0317664E0,5.6193686E0,7.732649E0,6.3774033E0,0E0,4.069779E0,7.5957575E0,6.481649E0,5.1333323E0,7.4634333E0,3.8726788E0,2.8858287E0,0E0,0E0,0E0,0E0,0E0,0E0,0E0,0E0,0E0,0E0,0E0,0E0],"parents":[2147483647,0,0,1,1,2,2,3,3,4,4,6,6,7,7,8,8,9,9,10,10,11,11,12,12],"right_children":[2,4,6,8,10,-1,12,14,16,18,20,22,24,-1,-1,-1,-1,-1,-1,-1,-1,-1,-1,-1,-1],"split_conditions":[1.0043682E0,1.5968485E-2,2E0,3.3E1,1E0,2.7951714E-1,1.8055936E2,1E0,4E0,5.278698E1,1.5E1,5.1795636E2,4.9912634E0,1.3646726E-1,-2.2633326E-1,-2.6904276E-1,7.576012E-2,-3.0793273E-1,2.1848401E-1,2.0089306E-1,-6.1897594E-2,4.2367026E-2,4.604964E-1,4.7400597E-2,-2.2082458E-1],"split_indices":[23,16,23,188,32,0,190,86,185,190,185,2,25,0,0,0,0,0,0,0,0,0,0,0,0],"split_type":[0,0,0,0,0,0,0,0,0,0,0,0,0,0,0,0,0,0,0,0,0,0,0,0,0],"sum_hessian":[1.9248724E2,1.1604465E2,7.64426E1,7.10216E1,4.502305E1,7.4377413E0,6.900485E1,3.658089E1,3.4440712E1,7.120958E0,3.7902092E1,5.5664665E1,1.3340189E1,5.3269677E0,3.1253923E1,4.682156E0,2.9758554E1,5.7638617E0,1.357096E0,2.2662527E1,1.5239563E1,5.4626656E1,1.0380073E0,5.27934E0,8.060849E0],"tree_param":{"num_deleted":"0","num_feature":"192","num_nodes":"25","size_leaf_vector":"1"}},{"base_weights":[-4.3413527E-2,-1.5793059E-2,-7.4651474E-1,1.381747E-1,-1.4201228E-1,-2.5575143E-1,-1.1460165E-2,2.5888553E-1,-5.1499295E-1,-3.6020485E-1,2.3963277E-1,3.1956263E-2,2.1431401E-1,-2.1398951E-1,8.85078E-2,6.288559E-2,-1.4899491E-1,2.6891258E-1,2.2243084E-2],"categories":[],"categories_nodes":[],"categories_segments":[],"categories_sizes":[],"default_left":[0,0,0,0,0,0,0,0,0,0,0,0,0,0,0,0,0,0,0],"id":45,"left_children":[1,3,5,7,9,-1,-1,11,13,15,17,-1,-1,-1,-1,-1,-1,-1,-1],"loss_changes":[3.558453E0,3.4771924E0,5.361328E-1,6.492516E0,8.268745E0,0E0,0E0,4.7413015E0,2.3882225E0,5.232624E0,3.9246237E0,0E0,0E0,0E0,0E0,0E0,0E0,0E0,0E0],"parents":[2147483647,0,0,1,1,2,2,3,3,4,4,7,7,8,8,9,9,10,10],"right_children":[2,4,6,8,10,-1,-1,12,14,16,18,-1,-1,-1,-1,-1,-1,-1,-1],"split_conditions":[9.1E2,8.38E3,2.8E1,6E1,1.0114431E-2,-2.5575143E-1,-1.1460165E-2,7.322E3,2.7727953E-3,2E0,1E0,3.1956263E-2,2.1431401E-1,-2.1398951E-1,8.85078E-2,6.288559E-2,-1.4899491E-1,2.6891258E-1,2.2243084E-2],"split_indices":[188,4,12,175,34,0,0,4,149,185,34,0,0,0,0,0,0,0,0],"split_type":[0,0,0,0,0,0,0,0,0,0,0,0,0,0,0,0,0,0,0],"sum_hessian":[1.8284375E2,1.7691628E2,5.927477E0,7.9654945E1,9.726133E1,4.904212E0,1.0232646E0,6.773972E1,1.191522E1,6.1918E1,3.5343327E1,5.202903E1,1.5710693E1,9.590239E0,2.3249815E0,1.2235698E1,4.96823E1,6.100048E0,2.924328E1],"tree_param":{"num_deleted":"0","num_feature":"192","num_nodes":"19","size_leaf_vector":"1"}},{"base_weights":[2.2933705E-2,-9.360063E-2,1.9290829E-1,-3.709873E-1,6.46561E-2,3.9398667E-1,-1.7709003E-1,-4.946574E-1,8.945454E-1,-1.6197129E-1,4.5484284E-1,6.141837E-1,2.1629524E-3,2.0599842E-1,-6.3432986E-1,2.3071791E-1,-1.7771539E-1,2.1321008E-2,4.2704618E-1,1.0056328E-1,-9.403941E-2,-6.346689E-2,2.5807473E-1,2.150234E-1,-1.140645E-1,-1.10564664E-1,1.7395307E-1,-2.3357217E-1,1.2128457E-1,-2.5993803E-1,4.4943176E-2],"categories":[],"categories_nodes":[],"categories_segments":[],"categories_sizes":[],"default_left":[0,0,0,0,0,0,0,0,0,0,0,0,0,0,0,0,0,0,0,0,0,0,0,0,0,0,0,0,0,0,0],"id":46,"left_children":[1,3,5,7,9,11,13,15,17,19,21,23,25,27,29,-1,-1,-1,-1,-1,-1,-1,-1,-1,-1,-1,-1,-1,-1,-1,-1],"loss_changes":[3.522872E0,4.6616325E0,5.4484434E0,6.4721856E0,6.0972238E0,4.066694E0,4.710378E0,5.233018E0,1.5964334E0,3.5171351E0,7.217862E0,3.6283484E0,4.1586084E0,3.346102E0,2.4506721E0,0E0,0E0,0E0,0E0,0E0,0E0,0E0,0E0,0E0,0E0,0E0,0E0,0E0,0E0,0E0,0E0],"parents":[2147483647,0,0,1,1,2,2,3,3,4,4,5,5,6,6,7,7,8,8,9,9,10,10,11,11,12,12,13,13,14,14],"right_children":[2,4,6,8,10,12,14,16,18,20,22,24,26,28,30,-1,-1,-1,-1,-1,-1,-1,-1,-1,-1,-1,-1,-1,-1,-1,-1],"split_conditions":[1.0043682E0,1.1E1,3E0,3.5325662E2,1.78571E5,2E0,9.335358E1,1E0,2.2352E5,5.3351925E1,1.54474275E-2,2.075809E2,3.1094036E0,1.0735757E1,3.7E1,2.3071791E-1,-1.7771539E-1,2.1321008E-2,4.2704618E-1,1.0056328E-1,-9.403941E-2,-6.346689E-2,2.5807473E-1,2.150234E-1,-1.140645E-1,-1.10564664E-1,1.7395307E-1,-2.3357217E-1,1.2128457E-1,-2.5993803E-1,4.4943176E-2],"split_indices":[23,188,26,190,1,33,190,13,1,190,47,177,13,190,135,0,0,0,0,0,0,0,0,0,0,0,0,0,0,0,0],"split_type":[0,0,0,0,0,0,0,0,0,0,0,0,0,0,0,0,0,0,0,0,0,0,0,0,0,0,0,0,0,0,0],"sum_hessian":[1.759405E2,1.0464522E2,7.129529E1,3.7526287E1,6.711893E1,4.614993E1,2.514536E1,3.4740517E1,2.7857738E0,4.282835E1,2.4290579E1,2.9182467E1,1.696746E1,1.3981086E1,1.1164274E1,2.1533244E0,3.258719E1,1.5626408E0,1.223133E0,9.847698E0,3.298065E1,9.494871E0,1.4795709E1,2.6508453E1,2.6740136E0,1.0556138E1,6.4113226E0,1.8837571E0,1.2097328E1,8.443928E0,2.7203472E0],"tree_param":{"num_deleted":"0","num_feature":"192","num_nodes":"31","size_leaf_vector":"1"}},{"base_weights":[4.4726497E-3,-1.8893078E-1,9.2200354E-2,5.720669E-1,-2.5022656E-1,-6.681606E-2,3.0264348E-1,1.0259075E0,-1.18172124E-1,-6.9876164E-1,-1.06526755E-1,-1.7906909E-1,5.647106E-1,-3.6175764E-1,4.9976364E-1,9.1047436E-2,3.668275E-1,-2.657954E-1,5.5807356E-2,2.3057519E-1,-6.224849E-2,-2.0724067E-1,1.5107288E-2,2.56487E-1,-6.9163345E-2,1.2665647E-1,-1.8910111E-1,2.104411E-1,-4.6780504E-2],"categories":[],"categories_nodes":[],"categories_segments":[],"categories_sizes":[],"default_left":[0,0,0,0,0,0,0,0,0,0,0,0,0,0,0,0,0,0,0,0,0,0,0,0,0,0,0,0,0],"id":47,"left_children":[1,3,5,7,9,11,13,15,-1,17,19,21,23,25,27,-1,-1,-1,-1,-1,-1,-1,-1,-1,-1,-1,-1,-1,-1],"loss_changes":[2.9292946E0,2.6565657E0,3.9936807E0,2.3123717E0,3.1845093E0,4.9537616E0,6.8975954E0,1.0993171E-1,0E0,2.2892842E0,3.7737267E0,7.0778804E0,2.7362194E0,2.9548366E0,5.6329174E0,0E0,0E0,0E0,0E0,0E0,0E0,0E0,0E0,0E0,0E0,0E0,0E0,0E0,0E0],"parents":[2147483647,0,0,1,1,2,2,3,3,4,4,5,5,6,6,7,7,9,9,10,10,11,11,12,12,13,13,14,14],"right_children":[2,4,6,8,10,12,14,16,-1,18,20,22,24,26,28,-1,-1,-1,-1,-1,-1,-1,-1,-1,-1,-1,-1,-1,-1],"split_conditions":[2.6485406E2,5.3475E1,1.00205025E2,7.43E3,7.8952484E1,3.0997803E0,8E0,4.8952236E1,-1.18172124E-1,3.0258865E0,1E2,1E0,9.5E3,1E0,1.9974638E0,9.1047436E-2,3.668275E-1,-2.657954E-1,5.5807356E-2,2.3057519E-1,-6.224849E-2,-2.0724067E-1,1.5107288E-2,2.56487E-1,-6.9163345E-2,1.2665647E-1,-1.8910111E-1,2.104411E-1,-4.6780504E-2],"split_indices":[10,189,2,4,2,26,185,189,0,157,2,32,4,26,21,0,0,0,0,0,0,0,0,0,0,0,0,0,0],"split_type":[0,0,0,0,0,0,0,0,0,0,0,0,0,0,0,0,0,0,0,0,0,0,0,0,0,0,0,0,0],"sum_hessian":[1.7062154E2,5.2882908E1,1.17738625E2,3.320868E0,4.9562042E1,6.745234E1,5.028628E1,2.2240686E0,1.0967994E0,1.1088495E1,3.8473545E1,5.7880596E1,9.571748E0,1.1314639E1,3.8971645E1,1.0628484E0,1.1612203E0,9.05816E0,2.0303347E0,3.3464818E0,3.5127064E1,1.7127222E1,4.0753372E1,6.8927484E0,2.6789994E0,2.791049E0,8.523589E0,2.9476149E1,9.495496E0],"tree_param":{"num_deleted":"0","num_feature":"192","num_nodes":"29","size_leaf_vector":"1"}},{"base_weights":[-2.5124628E-2,5.772584E-3,-5.167665E-1,-4.2070784E-2,5.852596E-1,-7.9758257E-1,2.0796758E-1,1.6421983E-2,-4.5849517E-1,1.1294961E0,-1.3879973E-1,-9.3354017E-1,2.8009597E-2,-2.6155667E-2,1.1436817E-1,1.6947599E-1,-1.9531876E-1,3.873887E-1,1.3818694E-2,2.0292754E-1,-2.0309386E-1,-7.3994555E-2,-2.9983738E-1],"categories":[],"categories_nodes":[],"categories_segments":[],"categories_sizes":[],"default_left":[0,0,0,0,0,0,0,0,0,0,0,0,0,0,0,0,0,0,0,0,0,0,0],"id":48,"left_children":[1,3,5,7,9,11,-1,13,15,17,19,21,-1,-1,-1,-1,-1,-1,-1,-1,-1,-1,-1],"loss_changes":[2.4979808E0,4.3365154E0,3.8857017E0,3.5296102E0,4.85721E0,1.1032648E0,0E0,4.971667E0,4.058676E0,1.2665195E0,3.171165E0,1.3897562E-1,0E0,0E0,0E0,0E0,0E0,0E0,0E0,0E0,0E0,0E0,0E0],"parents":[2147483647,0,0,1,1,2,2,3,3,4,4,5,5,7,7,8,8,9,9,10,10,11,11],"right_children":[2,4,6,8,10,12,-1,14,16,18,20,22,-1,-1,-1,-1,-1,-1,-1,-1,-1,-1,-1],"split_conditions":[6E0,3.0159285E0,1.9033363E1,1.7E1,1.9974638E0,3.6E1,2.0796758E-1,6.5066795E1,1.09559E5,3.5E1,4.09E3,1.28704E5,2.8009597E-2,-2.6155667E-2,1.1436817E-1,1.6947599E-1,-1.9531876E-1,3.873887E-1,1.3818694E-2,2.0292754E-1,-2.0309386E-1,-7.3994555E-2,-2.9983738E-1],"split_indices":[18,18,24,29,21,29,0,30,1,183,4,1,0,0,0,0,0,0,0,0,0,0,0],"split_type":[0,0,0,0,0,0,0,0,0,0,0,0,0,0,0,0,0,0,0,0,0,0,0],"sum_hessian":[1.6324873E2,1.5452582E2,8.72291E0,1.4359758E2,1.0928243E1,7.3694735E0,1.3534364E0,1.2675376E2,1.6843817E1,5.9191713E0,5.0090714E0,6.354492E0,1.0149813E0,9.9362625E1,2.7391136E1,2.440339E0,1.4403478E1,4.909344E0,1.009827E0,1.8969508E0,3.1121206E0,1.0788455E0,5.2756467E0],"tree_param":{"num_deleted":"0","num_feature":"192","num_nodes":"23","size_leaf_vector":"1"}},{"base_weights":[1.9736843E-2,4.188974E-2,-6.479513E-1,7.2805926E-2,-4.1848677E-1,-1.3483973E-2,-2.3509666E-1,1.03529535E-1,-4.461361E-1,-6.997549E-1,2.1461684E-1,-1.7092155E-2,6.618697E-2,-2.632847E-1,1.8335061E-1,-4.1163594E-2,-2.354243E-1],"categories":[],"categories_nodes":[],"categories_segments":[],"categories_sizes":[],"default_left":[0,0,0,0,0,0,0,0,0,0,0,0,0,0,0,0,0],"id":49,"left_children":[1,3,5,7,9,-1,-1,11,13,15,-1,-1,-1,-1,-1,-1,-1],"loss_changes":[2.4463298E0,2.2969818E0,4.2815614E-1,2.4389257E0,3.7740438E0,0E0,0E0,2.7625442E0,4.584203E0,3.483963E-1,0E0,0E0,0E0,0E0,0E0,0E0,0E0],"parents":[2147483647,0,0,1,1,2,2,3,3,4,4,7,7,8,8,9,9],"right_children":[2,4,6,8,10,-1,-1,12,14,16,-1,-1,-1,-1,-1,-1,-1],"split_conditions":[9.1E2,2E2,8.192342E-1,1.6736E4,1.38E2,-1.3483973E-2,-2.3509666E-1,1.59881E5,3.175E2,2E0,2.1461684E-1,-1.7092155E-2,6.618697E-2,-2.632847E-1,1.8335061E-1,-4.1163594E-2,-2.354243E-1],"split_indices":[188,132,47,4,188,0,0,1,2,25,0,0,0,0,0,0,0],"split_type":[0,0,0,0,0,0,0,0,0,0,0,0,0,0,0,0,0],"sum_hessian":[1.6255556E2,1.5824257E2,4.31299E0,1.4907352E2,9.169049E0,1.0916588E0,3.2213316E0,1.414968E2,7.5767207E0,7.6684556E0,1.5005933E0,6.0526424E1,8.097037E1,5.471311E0,2.1054096E0,1.4598235E0,6.208632E0],"tree_param":{"num_deleted":"0","num_feature":"192","num_nodes":"17","size_leaf_vector":"1"}},{"base_weights":[-9.965768E-3,7.432777E-2,-1.5884805E-1,-2.929577E-1,1.7931888E-1,3.0866435E-1,-4.509196E-1,-4.5983645E-1,3.6908472E-1,-9.839323E-2,3.2681867E-1,-1.9423221E-1,4.5582062E-1,-9.311043E-1,-2.153821E-1,-1.8764873E-1,4.880754E-2,1.8718106E-1,-8.98744E-2,-1.14541784E-1,1.0394582E-1,2.0749663E-1,2.2643529E-2,2.1507017E-1,-1.881507E-2,-3.1957614E-1,7.7597365E-2,-2.2967452E-1,2.2536374E-3],"categories":[],"categories_nodes":[],"categories_segments":[],"categories_sizes":[],"default_left":[0,0,0,0,0,0,0,0,0,0,0,0,0,0,0,0,0,0,0,0,0,0,0,0,0,0,0,0,0],"id":50,"left_children":[1,3,5,7,9,11,13,15,17,19,21,-1,23,25,27,-1,-1,-1,-1,-1,-1,-1,-1,-1,-1,-1,-1,-1,-1],"loss_changes":[2.0325654E0,4.0433435E0,8.130936E0,2.7535048E0,3.3544102E0,3.5746734E0,3.9196463E0,2.1713915E0,1.1193056E0,3.8723526E0,4.9172955E0,0E0,2.9341025E0,2.32905E0,3.216288E0,0E0,0E0,0E0,0E0,0E0,0E0,0E0,0E0,0E0,0E0,0E0,0E0,0E0,0E0],"parents":[2147483647,0,0,1,1,2,2,3,3,4,4,5,5,6,6,7,7,8,8,9,9,10,10,12,12,13,13,14,14],"right_children":[2,4,6,8,10,12,14,16,18,20,22,-1,24,26,28,-1,-1,-1,-1,-1,-1,-1,-1,-1,-1,-1,-1,-1,-1],"split_conditions":[1.1425776E1,2.989362E6,1.47412E5,3.8646786E2,1E1,4.474E3,4.9700924E1,1.0340062E0,3.475E2,2.0361543E0,2.7E1,-1.9423221E-1,1.085E2,4.1948943E0,4E0,-1.8764873E-1,4.880754E-2,1.8718106E-1,-8.98744E-2,-1.14541784E-1,1.0394582E-1,2.0749663E-1,2.2643529E-2,2.1507017E-1,-1.881507E-2,-3.1957614E-1,7.7597365E-2,-2.2967452E-1,2.2536374E-3],"split_indices":[191,0,1,170,188,4,190,20,173,14,188,0,170,20,12,0,0,0,0,0,0,0,0,0,0,0,0,0,0],"split_type":[0,0,0,0,0,0,0,0,0,0,0,0,0,0,0,0,0,0,0,0,0,0,0,0,0,0,0,0,0],"sum_hessian":[1.60019E2,1.0249154E2,5.752746E1,2.2386742E1,8.01048E1,2.2098335E1,3.5429123E1,1.8123774E1,4.2629695E0,2.7902672E1,5.2202126E1,2.469855E0,1.962848E1,1.0687555E1,2.4741568E1,1.4179618E1,3.9441545E0,3.1102724E0,1.1526971E0,1.7085121E1,1.0817552E1,2.0247013E1,3.1955112E1,1.2659009E1,6.969472E0,9.602006E0,1.08555E0,6.347066E0,1.83945E1],"tree_param":{"num_deleted":"0","num_feature":"192","num_nodes":"29","size_leaf_vector":"1"}},{"base_weights":[4.704054E-3,3.0107975E-2,-5.0393933E-1,-6.216621E-5,5.57829E-1,-6.260992E-1,2.53405E-2,-2.3850977E-2,5.257225E-1,8.349215E-1,-1.2965803E-1,-2.3682632E-1,-3.2476034E-2,-1.01362295E-1,7.986395E-3,2.5728554E-1,-1.707482E-1,-4.031845E-2,3.1258437E-1],"categories":[],"categories_nodes":[],"categories_segments":[],"categories_sizes":[],"default_left":[0,0,0,0,0,0,0,0,0,0,0,0,0,0,0,0,0,0,0],"id":51,"left_children":[1,3,5,7,9,11,-1,13,15,17,-1,-1,-1,-1,-1,-1,-1,-1,-1],"loss_changes":[2.0355086E0,2.386022E0,5.930978E-1,1.7980996E0,2.5999472E0,4.7701812E-1,0E0,2.2307968E0,2.8449984E0,1.5671449E0,0E0,0E0,0E0,0E0,0E0,0E0,0E0,0E0,0E0],"parents":[2147483647,0,0,1,1,2,2,3,3,4,4,5,5,7,7,8,8,9,9],"right_children":[2,4,6,8,10,12,-1,14,16,18,-1,-1,-1,-1,-1,-1,-1,-1,-1],"split_conditions":[2E0,5.087517E0,2.0241451E0,1.0044891E0,1.0850204E1,1.0053141E0,2.53405E-2,3.178E3,1.00845175E1,1.0345597E-2,-1.2965803E-1,-2.3682632E-1,-3.2476034E-2,-1.01362295E-1,7.986395E-3,2.5728554E-1,-1.707482E-1,-4.031845E-2,3.1258437E-1],"split_indices":[101,157,161,128,191,153,0,4,140,35,0,0,0,0,0,0,0,0,0],"split_type":[0,0,0,0,0,0,0,0,0,0,0,0,0,0,0,0,0,0,0],"sum_hessian":[1.5535419E2,1.4886024E2,6.4939375E0,1.4175586E2,7.1043887E0,5.3275275E0,1.1664099E0,1.3653314E2,5.2227216E0,5.683033E0,1.4213557E0,3.5830867E0,1.7444408E0,1.8011656E1,1.1852148E2,4.1471524E0,1.0755693E0,1.11768E0,4.565353E0],"tree_param":{"num_deleted":"0","num_feature":"192","num_nodes":"19","size_leaf_vector":"1"}},{"base_weights":[-7.131974E-2,-1.0406499E-1,3.716265E-1,-5.942513E-1,-6.9706984E-2,5.7423246E-1,-1.1959085E-1,-8.15811E-1,6.691543E-2,-2.633816E-2,-5.177028E-1,7.376166E-1,-7.545972E-2,-2.6943296E-1,-9.478309E-2,7.698671E-2,-4.0647805E-2,2.8469467E-1,-1.6583804E-2,-2.7961633E-1,8.816206E-2,3.208721E-2,2.7162203E-1],"categories":[],"categories_nodes":[],"categories_segments":[],"categories_sizes":[],"default_left":[0,0,0,0,0,0,0,0,0,0,0,0,0,0,0,0,0,0,0,0,0,0,0],"id":52,"left_children":[1,3,5,7,9,11,-1,13,15,17,19,21,-1,-1,-1,-1,-1,-1,-1,-1,-1,-1,-1],"loss_changes":[2.251352E0,2.3641334E0,1.9149013E0,1.4056084E0,2.6017015E0,1.3943398E0,0E0,3.1613827E-2,1.629847E-1,3.6684768E0,4.381761E0,7.66212E-1,0E0,0E0,0E0,0E0,0E0,0E0,0E0,0E0,0E0,0E0,0E0],"parents":[2147483647,0,0,1,1,2,2,3,3,4,4,5,5,7,7,8,8,9,9,10,10,11,11],"right_children":[2,4,6,8,10,12,-1,14,16,18,20,22,-1,-1,-1,-1,-1,-1,-1,-1,-1,-1,-1],"split_conditions":[1.0055416E0,1E0,1E0,1.75143E5,2E0,2E0,-1.1959085E-1,1.027865E0,4.7690628E1,1.5E1,3.0632746E0,9.265614E1,-7.545972E-2,-2.6943296E-1,-9.478309E-2,7.698671E-2,-4.0647805E-2,2.8469467E-1,-1.6583804E-2,-2.7961633E-1,8.816206E-2,3.208721E-2,2.7162203E-1],"split_indices":[159,185,79,1,24,160,0,18,190,2,20,28,0,0,0,0,0,0,0,0,0,0,0],"split_type":[0,0,0,0,0,0,0,0,0,0,0,0,0,0,0,0,0,0,0,0,0,0,0],"sum_hessian":[1.5155237E2,1.4183232E2,9.720037E0,8.222725E0,1.336096E2,7.9109707E0,1.809067E0,5.983674E0,2.2390506E0,1.2278229E2,1.0827309E1,6.7000685E0,1.2109021E0,4.338646E0,1.6450286E0,1.0110283E0,1.2280222E0,2.660419E0,1.2012187E2,7.010785E0,3.8165238E0,1.8357242E0,4.864344E0],"tree_param":{"num_deleted":"0","num_feature":"192","num_nodes":"23","size_leaf_vector":"1"}},{"base_weights":[3.1965133E-2,5.2303888E-2,-2.2186776E-1,9.5822945E-2,-2.8285405E-1,-5.901611E-1,1.20372236E-1,2.1407604E-1,-6.167225E-1,-2.2029345E-1,-8.3128465E-3,5.7945447E-3,1.0454199E-1,1.9819354E-1,-1.6035676E-1,-2.388826E-1,1.7554274E-1],"categories":[],"categories_nodes":[],"categories_segments":[],"categories_sizes":[],"default_left":[0,0,0,0,0,0,0,0,0,0,0,0,0,0,0,0,0],"id":53,"left_children":[1,3,-1,5,7,9,11,13,15,-1,-1,-1,-1,-1,-1,-1,-1],"loss_changes":[2.4587533E0,2.2079473E0,0E0,2.3122015E0,3.024874E0,3.888873E-1,3.0212533E0,3.020196E0,2.9190607E0,0E0,0E0,0E0,0E0,0E0,0E0,0E0,0E0],"parents":[2147483647,0,0,1,1,3,3,4,4,5,5,6,6,7,7,8,8],"right_children":[2,4,-1,6,8,10,12,14,16,-1,-1,-1,-1,-1,-1,-1,-1],"split_conditions":[6E0,2.29754E5,-2.2186776E-1,-1.5302188E2,1E0,2.9169893E-1,1.5E2,2E1,3.4850027E2,-2.2029345E-1,-8.3128465E-3,5.7945447E-3,1.0454199E-1,1.9819354E-1,-1.6035676E-1,-2.388826E-1,1.7554274E-1],"split_indices":[148,1,0,191,33,171,189,188,180,0,0,0,0,0,0,0,0],"split_type":[0,0,0,0,0,0,0,0,0,0,0,0,0,0,0,0,0],"sum_hessian":[1.5145677E2,1.4851868E2,2.938097E0,1.3208235E2,1.6436325E1,3.7674747E0,1.2831488E2,6.749366E0,9.686959E0,2.7088532E0,1.0586214E0,9.022773E1,3.8087143E1,4.2847657E0,2.4646E0,8.665383E0,1.0215766E0],"tree_param":{"num_deleted":"0","num_feature":"192","num_nodes":"17","size_leaf_vector":"1"}},{"base_weights":[-3.8704198E-2,-7.088736E-2,5.029084E-1,7.5564556E-2,-2.0757757E-1,8.3306E-1,-3.3733258E-1,3.162475E-1,-1.1804947E-1,4.1889024E-1,-2.716133E-1,9.947594E-1,2.5203688E-2,-1.387932E-1,-1.2391972E-2,-8.053779E-2,1.8898503E-1,2.0382701E-1,-6.2395383E-2,-1.2048562E-1,2.2402741E-1,-2.6745113E-2,-1.4929065E-1,3.300893E-1,9.842078E-2],"categories":[],"categories_nodes":[],"categories_segments":[],"categories_sizes":[],"default_left":[0,0,0,0,0,0,0,0,0,0,0,0,0,0,0,0,0,0,0,0,0,0,0,0,0],"id":54,"left_children":[1,3,5,7,9,11,13,15,17,19,21,23,-1,-1,-1,-1,-1,